-7.92201033378422
-7.481561056036052
3.0414492219645233
0.9215937800668551
-5.717207029131718
-1.592742745541121
-8.106357349680483
6.429448516918294
-8.229087877145286
-8.50739554006367
5.461796876775154
9.93138623754587
5.211707530472235
-3.797457326744307
-22.658270270291986
-3.4160028763865484
4.731827521215094
-3.3973881927203795
0.6057570245668593
-4.797204551720988
-2.7965363714267832
-0.830912509651072
-8.038252461825355
8.899058569104007
-2.542740089940217
2.60977956484376
5.37047069744207
-5.549374443363544
0.592142731706142
-8.093553828416134
-6.3110372930119825
-10.39044380592977
3.9549703694200717
-3.6440874088082995
-3.730681325206094
-9.34294282568064
5.5720974807585835
-1.3624907450047241
5.276076882229138
-3.1822895528015276
-7.624188137930693
0.4634103715411743
1.039092215835764
5.595385292643146
-5.613122025504912
-7.350493566051954
1.247310124833733
3.19379422256647
5.500041130667248
4.157962186558864
0.3653832692074729
2.264440071750924
15.43617838976376
-8.98700081670819
-11.07048276691543
0.9525876862225761
-1.1936040622903061
0.7414618884554621
3.6892915813194107
-7.179989029503161
-2.911428474864809
5.340052753190871
-1.744767603078352
-1.0467475584550008
-12.701641582673602
1.3471726445942445
-5.748598723524686
-8.735486585669355
4.662392315737838
7.751969985575232
3.8228042055718308
-10.231887563456043
-9.092496530185718
-4.36727376633989
-11.515718650167205
-0.5994395127241073
3.6332964030087993
-6.5929189963476285
-10.08681007417409
-8.96448211500787
-3.224593145210468
10.421371916647901
-10.02525584670864
-3.413248804010997
5.086600372531766
-1.22238036312348
6.6821432372146985
7.900282776488683
-17.82978465372427
2.0441787958699877
-7.586005911514759
-4.9581545181951086
10.701642143884115
7.022946345578409
-9.59570680945283
7.655545613733156
8.096601103239589
-8.630579118512664
-2.277990956018471
-9.37336157393601
-6.933344908313295
1.8526731550905164
-5.811999981210227
3.023243102963325
-8.499233935512473
7.758623669538362
8.39615492598032
2.600013126013748
2.349736485505365
-8.94403221145482
-1.470516532556666
1.143864055899548
-14.5087177667924
1.1177525818245615
-1.4228064358966597
-17.526606941617324
-6.340963561540984
-8.747288633631744
-0.7004480878422157
9.453907499672955
-5.82960789575027
4.77759593471171
-8.353705745870233
-13.061428011763619
-11.686415110465354
-7.304407332830042
0.472077456042486
-8.054996834034627
-8.428972489489732
-7.8609846412402495
0.6727002525495706
-3.1592586099930937
5.6150847933087995
-13.673849958384357
-7.6006619596430625
-1.7746396798489301
-0.2503726328209288
11.030308101166852
6.935511960566536
1.3825472711446656
10.288235144720785
-5.6720261642594405
0.29270253390527656
-6.743001436554565
10.402533701480328
-4.3315164429817345
1.2219751824997478
-0.5926498558817956
4.559942464782681
1.954191873924754
11.530160300390028
-13.805330294275333
9.918508434267128
11.99896735056787
11.936100604318641
5.17647379212836
-3.160202914603204
-16.898086730028858
-4.166903906111798
19.37808418549162
1.0139808467953704
-2.305092346852488
0.5248778024468931
-0.7101573995760755
-10.60528893238913
-12.44379088925336
-5.023278446052818
-6.9340311270295905
-1.209626215046411
6.470070717963438
1.6213874348382231
-4.701419890039067
-0.3958849766381845
-0.7842084845704599
-3.6621678597340526
14.931648077695323
-3.138897471944666
-1.9083210347930082
-1.0301516178046464
3.5225345705505497
1.0946916378983662
-1.0224737037229132
0.0010787636688440606
-10.993377673951223
6.052259684891062
-12.403144467712124
-8.682983275737081
-1.3412829459408595
7.56098905633686
-6.189222914741297
-3.202822063316566
3.970709846943105
12.865231555226908
3.389596419433877
-13.679249347388915
-0.9053165255809278
-5.848384888387993
-0.20854732863596967
6.690792849284425
-5.448859729319673
-7.029254622201979
0.07687599044515693
-7.83655860384621
-5.152125666648923
4.464699251188818
-1.1749861329177034
5.945039002984645
-7.302672371210098
-7.682746598380186
-8.913170943512478
3.061976927803322
-2.0382360884005495
-10.650385478949632
-10.647311141165266
9.773764854742947
4.09755577814008
3.3515056276143
8.750555869984897
6.156091579571525
-8.50169809722999
7.35309343292309
-6.6261958304597774
-7.825891824186461
5.595551707058544
-8.812280194900488
-3.926522462121063
2.8986247683296087
-4.7329661063574076
4.315505166130442
-7.617439029398644
4.508294800415079
-4.7880163832873714
-15.81229817292821
5.745831549316637
-6.573778937578047
0.001011584348712813
-6.700472982769551
4.006163144865143
14.54656837717917
-1.9597946493754888
-3.3820041442845783
7.361103379230968
9.942302198486924
-13.081190269812964
-5.61965043938789
-8.699883040576214
-6.9869508960328695
-7.910458706184126
-7.430928501435467
-6.205820906687952
-3.0230062111106784
-0.3151375165400506
-4.6920132748182635
-5.463857292581064
-6.010417722310522
10.77049503103675
-7.932301652588998
-3.597013206988949
-9.302354175941337
3.4246198027043206
-3.3016545545980414
-2.8599613971932865
-10.860494495963893
-0.8784285459789899
-2.9463342773360277
0.9173041146602022
-9.357319775806628
-17.951314618306316
0.2566080329564577
-12.2498366591741
2.9552983913917314
-0.33476139024927665
-13.340594056599794
-6.049091332220097
2.8611205665021826
2.6386543995845755
2.1944938943499097
-9.757625261781824
-7.575756512717909
-2.4460668341122362
-3.049687392677567
10.21915077573039
9.533372499856059
-2.4751824767280133
-20.39370229472116
4.76684110544112
-0.1560909406709848
-12.042134651676708
-10.98989504797203
3.0686515327674466
-9.999110833211084
7.29217746820689
5.719535732517569
-1.7862070614150134
-13.963239353934823
1.1319297236248507
3.9839462907133063
0.8719525854690794
0.17434426645697443
4.107100662961392
-0.3300095454074981
0.1407602381776831
-0.31347373315498106
0.41673328710095364
-1.5086130186125362
-0.9134462308874145
1.0011609602137714
1.1255140743280199
1.4211274310924602
0.6146663109690538
0.8088152075907666
-0.8385798987357101
-1.1365261512725868
-0.03496359590936451
-1.7513501991997953
0.932069090851269
1.0988071223353206
0.17293076481515637
0.011117358915078177
1.1358008366538617
-0.37366598433244097
-0.4583672982668827
1.2546928005398845
0.2521638741085391
0.21116777030091816
-1.0206795085820213
0.49708373851691773
0.2991776274991944
0.6717811893499646
-0.3203393208881005
2.48338327835711
0.4997994115443793
-1.2333657273662795
-0.7837225931356885
1.0091524047772278
-0.33624897219566674
-0.6444175009461616
1.0769226046487907
-0.8353099455700298
-0.4608054727506091
1.8748587509433012
0.6157000876060187
-0.0190767120057325
1.1649690437630629
-1.2583204247771662
-1.7377325057068733
0.29298801076325853
1.6997443070960545
0.3407872851797539
0.45839643973998545
-0.43694951255364295
1.3730437054746227
1.3842512376783458
0.6293813911864823
0.6432720480560152
-0.60568567450748
-0.09308860189781837
0.12361906922891158
-1.1477977278905878
1.273718306905565
-0.8290619242807743
-0.20487260520432943
1.6863303253755324
0.28972509733307095
1.2793715134541461
-1.5966841942015584
-1.835373549065747
-2.3553625548003625
0.8959445760119623
0.9101845567429344
1.3571126418238417
1.5517379621386167
1.1726005966653097
0.34138372631269304
1.4541915706635204
-0.5267910118690899
-0.20682497170320535
-0.9717847653626227
-1.3887518949588453
0.013204399428304337
1.2170176260912628
0.1966954531347572
0.31248581723016955
-1.4970550278354702
0.034596973063424484
-1.4131100386126285
-0.7242536109353872
0.6326737232635337
0.9228087600452953
-1.2971683242605463
1.1348726883189102
-1.5838868102040553
-0.3465786344927061
0.5684320970964898
2.3713288589835573
-0.8223275918700875
-0.07617242540274866
-1.0556410257599804
-1.863168148171249
-0.585382593260474
-1.158057910265153
-1.381467682062333
-2.710057849790229
-1.723659935583104
-3.123944515906494
-1.444390962485435
-0.7014443189050769
-2.0985111198435207
0.010059793351229269
-1.5456008514128283
0.2114832773217792
-0.9582726994372973
0.26078897453087313
-1.0420938982435874
-1.3835065020807964
-0.5760708785865769
-0.6701567399608298
0.2788373931732976
-0.8491489034603389
-1.3399934934491096
-0.6438439978549837
-2.269347163357011
-0.7641700220782837
-1.2115331550711448
-1.5042697280902448
-0.08737956380287926
-1.008122402966627
-1.6062963063208229
-1.9511865754201603
-1.6039689155067152
2.1593400575186514
1.7440959229110014
-0.13381411080005098
0.35049173507752157
0.6235402075638459
0.8660866088093773
-0.17388007554693366
-1.8671761727905403
0.19081818294380745
-3.5253200393434025
-0.827516240116294
-0.0031804447458376245
-0.995059467316098
0.1735057985305334
-1.218923169672999
0.2715255552022606
-0.5206913270088298
-2.264157459079784
-2.92074517120241
-0.2869116260267
-2.4322527500368873
-2.160380368845766
-0.9913276269865089
-1.7842029839251399
-3.9182192745802285
-1.6813162778434463
-5.214629820908673
-2.6280691383974757
-3.441031219061387
-1.7318379884880557
-1.2901214283570916
2.5524774090955757
1.9169893523036845
1.4837683409343294
-0.6331265153970894
-0.3531525177612783
-1.3401852597315151
1.2304130011641978
0.32069366406460176
0.48633988411663853
0.10167716662209325
-1.9058368630376266
-1.1777724718093534
2.8510095827704918
-0.13397168442906796
-3.6923845898872636
-4.625239064729392
0.15999400857181809
-2.3065458996940693
0.7392528605921582
-1.5689453372460302
-0.43054425146663994
1.197802789692838
1.347023860073454
-0.16830261265754426
1.6997437258348904
-1.486338688706997
4.047436758599444
0.5180354646522874
1.3811134387245885
1.3380071281199784
0.9613841785418342
3.1084868309078937
1.6985118403267787
-0.8839089966231514
1.2992836934615635
0.42579538839599235
0.03240191485874652
1.9359692072845394
-0.13054758312592923
1.094437925569522
2.2058618346696144
0.15755772200266555
-2.3009677613862185
0.7080440379062967
-0.7153331800259808
0.9738421273105202
-1.5326808883690821
-0.14513355700370384
-0.28142842737564583
0.42769028970751577
2.0354159919194776
2.1565861805393123
1.4321743400086653
2.8533667243929974
4.723153788291235
2.321445019279507
0.7666057021819823
2.6794919017796115
-1.139029040754583
1.9557381314445614
2.815954388075427
0.2900296921665879
-0.7400486548332156
-0.35266022535271585
-0.7533101573453487
1.6245659064118827
2.9491224286605453
1.881717854126673
1.0327824462739201
0.048968038512589615
1.3561841647700286
-1.9667497658543716
1.6958971161515097
-0.6911616467168619
0.585094654637501
2.986355899705556
3.1199204927714757
1.000973291873017
3.586163430196958
0.3552157838241044
1.9320404919536762
-1.0222107652987393
-1.0627620600066692
4.458709024034925
-1.5200034479241527
-0.13503856491747074
0.0830248323270421
-0.2732434201796341
-0.3945955529665641
0.40201399591990006
1.6698951620255498
0.3436662066545154
0.06739875453836308
0.16578471972199058
1.0938339055852881
-0.5910118278818516
0.8476100432070577
0.16736176563224928
0.5809512277995285
-1.4674569105059607
-0.28955302609726685
-0.7678410016472472
2.707469348269328
-2.5225241811964056
-0.1256774197615994
1.047374677906471
3.638282040286855
-2.5830551377769377
0.7617598114792387
1.9554799499312527
1.8442546569639837
0.18791292553605424
3.594444487815977
3.1079413012021075
-1.6479279843453445
1.7401932644584863
1.3404500120806997
-0.993504948543412
-0.16876073989230295
1.6225738291885385
0.8945465815011838
-0.9337382074713394
-0.15154048400886738
-1.902024371181604
-1.5243310115763204
-0.5872081113594135
-2.735986739470138
1.0288497174508369
0.7441481840650395
1.9738457824851952
1.457634993689335
2.963619748871324
0.16421263712894596
0.009094482463762045
-4.187499476079798
2.3084456646292373
-2.4455715535204936
-0.8659310565837859
-2.660466990653473
-3.353543915379585
-1.1533697436323
-1.055914949759669
-0.03202501382125836
-0.6733046871127225
1.6684124296767893
0.0510799250727892
0.455821245736642
-1.3223878948741388
-0.26696516900198736
1.8610169318546559
-1.4529457401944876
-0.10947391702478379
2.5528828939534054
2.0282455936807464
1.5046391732471862
2.309893983231408
-1.0694814747756178
-1.8297021822090132
-1.1287700846493494
1.112801790410911
0.4143833118739983
1.0311575990078263
0.2709324567186529
-0.9595171458386693
-0.9757238992200749
-3.706966653329706
-4.431948750842446
-5.370193828895843
-6.60268876436947
-3.573056058240319
-3.8952988999068565
-0.5137801560168292
-0.5753478347547191
-0.9660189876978027
0.024764305226225695
-0.8875200932519911
-0.810292112559469
-0.7514143272516308
1.536324618700392
2.6916451930419236
2.696651139145208
-0.5240441772570182
1.2116409986687715
1.3467211771781091
3.9971848947843784
1.1571198822357984
0.6640828315217008
-2.283772427252963
-0.3344435550355411
-0.42569757482512854
-2.819446034003485
-3.324067190073412
-0.03943225529376936
0.44947386144308543
0.0817586450227759
-2.053380411060125
-2.6980956791850597
-3.3183027391162447
-3.066912315457343
-3.6523027247389224
-2.8292750802295985
0.9394385576119281
-1.0979263201417893
-0.424152145187854
0.7715354608081187
-0.6852341365027567
-0.5332489933112751
1.350727520056805
3.7753716246848423
-2.2047319943430668
4.83041008803926
-1.1767248145969638
-0.5887382033588157
-0.6887214401816358
2.037101103835977
0.12440685756347306
-0.040542737424835724
0.7581406007998114
2.7000488120476183
-0.3173552887750576
4.5319920014071275
2.646608118647948
1.1209311381374698
2.266798696733588
-0.8957839842094013
-4.574698828484924
-3.9891020065748384
-2.910322919155567
1.4912255031223585
-0.025519602189255194
-0.28251624756193444
-0.3167042975856093
0.6488465546117298
0.5238841227216219
0.9307148082254376
0.3474078726355966
-1.6775723075512805
0.3262999765863376
-2.368168236035755
0.14386683035183515
0.5301479550679338
2.3169794742461844
-2.648707356788519
-1.7741188795115588
-0.2241175516724576
-1.157285704562251
1.3634303994638126
0.009212929430025689
-1.0880256138180255
-1.8572925680258674
2.7104902084774385
1.8154368083963597
-2.5811790292019356
-1.3935195626504393
-3.3012739859326325
-2.3361026949727224
-0.5728643563589253
1.1162383130994462
-0.5315884549475405
-1.5279011669522016
-2.1956702919110707
-2.8528229953205035
0.9421569483638795
1.1096775432831993
1.790123224513647
2.228230585490348
-1.1381888998314897
-4.690486761468202
1.7031044764665475
-1.1141046784557471
-1.3394428437244594
0.5579835271011415
-4.019280245283816
-1.4364719198194384
1.3243313340114413
-2.925231165856579
0.43078545426873405
-0.004978663706633572
-1.781920918838818
0.6780895670585108
-0.9678986043902665
-2.007382788231704
-0.978060735375055
-1.4929825190837989
0.7036686784187595
2.3948428471444907
1.9565102703615458
2.133906029405185
0.8189868180466808
-1.743519822441173
-0.6352248394433817
0.5256436052879662
1.4500326330436053
2.6634606863948553
0.587424382999324
0.9898948367143239
-1.9716786278398848
1.41847784239027
3.870108808498589
-1.6898095269667108
0.29175345176540823
0.17153007234127343
-1.4643564709131165
2.826147443085261
0.3051135778789408
0.6279946306885783
-0.77001522068773
-0.5377570493797907
-2.9033539096110186
-2.532377951993204
-0.024701712398182966
1.4263872123537158
-0.665539155806131
2.1833407129361717
-0.6477000831656703
-0.5118115584840947
0.21097089397315255
-2.0435305468616987
-2.216299226070125
-0.8724018830322028
1.3230583024307438
0.29066673158910483
0.5058314967516301
2.485253899753679
-1.8986357716512032
-0.464771084874168
-4.496217039302143
-1.2547595582478621
3.963862631897179
-2.2711313563762765
-1.7349090866238495
-0.4995131803828325
0.5871654584052824
3.4540499333996375
-0.1449721661493709
-1.5195358973729542
-0.14165726903565104
1.0751367208858313
-0.7405514361356244
-1.7293498230258055
-1.5550561784524792
-0.14476805109932897
0.891730742144635
1.0121259077304725
0.8052475297325302
-0.169809333486662
-1.7361150765418305
-2.1336618167888433
-3.6462666094718115
1.0516687019390376
-1.1340638484674828
-2.619849122496614
-0.5958187992308431
-1.6804872455836797
1.6041106961302634
1.9755414733571492
-1.5983049897722286
0.9670761409454401
-0.4277827302445155
-1.0034282205989968
-1.192221006355105
0.783236221971551
0.846960147852191
3.8493279035714405
-1.5970642221695994
-0.5974285332419136
-0.5241263403183577
-3.2693073834904878
-1.251074786926443
1.3874162322299746
-0.5529978510893238
-0.3552819272592204
0.21898352591244033
-0.3474292994627009
-2.583569460762516
-4.696148398868689
-0.5166144205989281
1.1460987407912184
-4.773090250398813
0.8689913199434594
-0.9729464568304264
-2.568068091727171
-0.5973486156264369
2.400344274421501
-3.7991687769955607
2.7926011992594844
1.1012867936174915
-2.280932228233211
0.001174098079463364
-2.589205691745642
0.7710174638259759
0.7482728759684663
-4.2197679592491415
0.97718147840513
3.9028527804271738
1.7748530741376503
1.0785777250440083
-0.6814257188260555
-0.39351461065052357
-0.6892084875444757
0.9270775688213001
-0.03931087033760412
-2.3379763974272465
-2.4649790111064758
-0.8279499849294901
-0.15051196811016762
0.08568647091845273
0.9195136520961837
-0.4226992030786854
-0.07095111632358278
-0.8843633746040243
-1.6535455327449373
-0.2323861832162267
-1.5088779809324895
-1.9514342378298348
-1.585604262058811
4.412929720470065
-2.0528932916691884
1.1362732798489283
0.14670611328214408
-1.6645475315322749
0.5379648306336026
1.6875968484562172
-0.5504080087584718
0.4345324148840208
-1.8564322967842324
0.1690060648521248
0.3302471265868976
0.002365008704601096
-1.0303366807961383
-2.6263005235738652
-1.5841683498959338
-0.09526475130924848
0.9186785013216946
0.5516088793516245
-0.6283301347306852
-2.7249024808344315
0.2938941615152846
-1.148395692940379
-1.5459561639007948
-0.8176553431606266
0.08060243879890999
0.4876669282235002
-2.4195513636963186
-0.24482124745690068
-2.738300553909427
-2.066937827354336
-0.2646819792672302
-2.3401006908329873
-1.3990222740301779
1.7243469948196088
-0.05823410052519221
1.6345424951964307
-0.41578671103050235
0.9834631107315829
0.6390493736914516
1.2650726268532955
-0.5404089619960282
-1.5277114030250256
-0.5500982764526421
-3.8661473021278208
-4.553679040311842
-0.38301892481076
2.304743940526552
0.7521222711346615
-2.6322969305504063
0.7833970434985975
1.2133393838990785
-2.022806841284464
-3.1862536239775996
1.795317392479854
-1.2163691819075677
-1.8051841240135666
3.036854395861151
1.3392037955372815
-0.046656239244189913
-0.923884572380657
-0.5340316384994829
-0.06858480637454066
-0.10165045705817642
0.8123057033032145
-0.03143853281384225
0.6713273935710504
-1.550041574748324
-0.11765804973005792
1.433430586203689
-0.30859838297897135
-2.8221792148015954
0.8304477438676456
-1.850088215683014
-1.5026508752671563
-1.2511049560890535
-2.684974890978765
1.0507483175711572
-0.8159574614847894
1.777860262079925
0.6853093030921126
-1.6794994611732263
1.7537691388851833
-0.3048361702447579
-3.039843362024568
-1.5659604731030607
0.04086132659829796
0.5222425840839057
-4.509346852354524
-0.15983064210157513
-2.3923025767060193
-1.2169566859643763
1.458375377959349
0.21340513266918287
1.3274119602673304
1.3444575064693094
2.5657323930364777
-1.145153475025385
-0.4399572020994311
-0.9601775489957768
-1.7699517283580295
0.5616057821847398
0.6503253398990042
-1.859555955003278
-0.5054323632842458
-2.388722905023456
-3.747514202485069
-0.13422334340780265
3.0569993141517555
-1.462539997647962
-2.0926442221224937
-1.1110477195356914
0.7160154533347031
0.9961248243156191
-1.6745392653500895
-1.4401839833119479
-1.1750024891550093
-0.4101495776320259
0.30483389792205356
-1.5422820005471294
-0.38361963936088317
1.3677873943816508
-1.3444474115351561
-1.0990799648272536
1.3195977397117946
0.44751591462699253
0.09743087926850402
-1.471376300271255
1.4290262701672045
1.7296301859312255
-0.31154963591299095
-0.27865923602838844
-1.1215740719544698
-0.09364893284584491
-0.4310081204772707
1.4666429699365564
1.1872666329368617
0.09854977936123181
-0.6972669690416028
1.7143688385766134
3.2480477891992656
-1.1194727191241622
2.706782028296772
1.4216962966163125
3.8180415948198454
0.5260778301846074
0.20716972868141711
-0.40608600721337534
-0.25748980286159234
0.5191942790479058
-0.41010448490052526
-0.5181671704148256
0.2280879113341046
-1.926784902487155
-1.2132362592884418
1.1430374668014511
1.5966901913919567
0.8901282064958155
0.7969672697007625
1.5540400490374846
0.7262188042625296
1.4419008207312551
2.018508537851297
2.857335630029379
4.243629235305153
5.83390175686778
4.75055668841863
3.878055648996178
2.841752402913588
0.6194714912428632
3.6315888092972557
1.1756499326469314
0.35958578246672723
0.9607180632797228
1.6819944390389145
1.024745380486441
0.8494247075760144
-2.0340349487126264
-1.8911696711264974
1.1016343312978971
0.160075657882665
0.7699928076829539
1.0837598252681058
0.2955812841642061
0.6134531740341732
0.8310592380780467
-1.6601767513366081
-0.5448212259208391
0.6547615781216788
2.194758550976537
0.9610794340153714
0.6933520548255974
0.9647806000682869
1.2784375807013522
-0.09784208759072933
0.7946152293344446
2.045446522682943
0.017043594354182966
-0.29394214594984097
-0.8722973720367496
-1.8743565493325531
1.0865633689025622
0.8942075386681525
0.5476652900359913
0.8774610351809703
0.4195164066362047
0.4164532161083354
0.9801079363970477
-0.2951780991891078
-0.8851538905637233
1.9431450948122924
-1.0723944514580512
-0.4163960637780677
0.8740340522147173
-1.0177647966059953
0.16356508756039387
1.5177723391469924
-0.5013164400059302
0.017723071246996853
1.9559062640897826
1.0159762425810408
1.972856247882978
0.11661744051040726
1.6892660365455359
-0.6874040955118267
2.03420627707397
1.3852795381213274
0.5692717563765033
-1.6028339044907995
-0.1071619962155417
1.8929400138038752
-0.5589515782123047
-2.0990642639808432
-0.6552705284117001
0.4729458129674086
0.3348324394456546
-0.5653461193063928
0.507064987830609
0.4475277012708831
1.2613374119439784
0.15709225383222722
0.836451276830581
-1.2770025458679488
-0.4424775609395928
0.874651406350821
-1.2375801174159227
1.398649392092899
0.8135765853255919
0.3160067643169375
-0.054736031714760346
1.789629625210502
0.39831922695399874
1.0866686815931939
-0.6618701779965834
0.13146611320312251
1.2761806981276593
-0.3971317951095445
1.696842687819189
-0.7994292741851019
1.1832299787748348
0.053591126777790925
0.8568302088834877
1.0195391461362149
2.051242226872552
1.081055373885301
-0.61086304889012
0.9764644912153496
-1.3402764550975623
0.9606732670797755
-0.7273810782337813
-0.45182469289118143
1.3514910908438356
-0.4481340409044974
-0.7185630053804636
0.7091875461581537
-0.36071136697340206
-0.5703428848305103
-0.1739176632154541
0.813726000247317
1.3493558014628153
-0.12836191946454717
-0.9685943719547231
0.3491730939772885
2.003996636431561
1.3134982555870522
-1.4106233500334313
0.11662021901009957
0.7613526700113137
-0.42646294532285883
-0.25420341652280526
0.3608391545211928
-1.8000639545294719
1.3719137980488179
0.01787827590379849
0.4546182396814712
0.14119151286017392
-2.4834802982090256
-0.4552646135296358
-1.5586739502119629
0.5047986289117284
2.404733325268453
-0.1508246355061399
1.1787817177601567
-0.7285214610929183
0.8553876075138221
2.0988946334935235
-0.26818791225513583
3.1872242259427783
1.0416191785769309
0.30145616574948825
-1.0242313773500766
0.4393829329774601
-0.6056616050328963
0.4681788401369734
1.0887802669488662
2.5687092387939208
0.24614271664139992
-0.34645656093835897
-1.2803529378495666
0.8913272165926177
-0.32840400033096334
1.7156486152366375
-0.2828702050020817
-1.1253321128932068
0.17927568785427972
0.3118038179186557
-0.3710834400455646
-1.3966650911934184
-0.017766997894407593
2.8299328696022386
0.8532541383874098
2.7931033147488447
0.488063571408643
0.10073744300053229
1.039753145309721
-0.9077590649823627
-2.7597722833903604
-0.07865051315315401
-0.28686984670733934
-0.422798661933501
2.3464828973504557
-1.1481595927475756
-1.094438665755698
-1.0803222746947336
-0.18709385586374103
-0.1427020287741192
-1.7537731320699985
0.7689304033352006
-0.6864039588015347
-0.539911272810621
0.7989489795091732
-0.7984351273074232
-0.36518919337746436
2.2417744010953844
-1.2921316338799524
-1.538419645704155
2.6862545437586385
0.40199098321295074
2.1013055969449015
1.4704313956143027
2.3326579678712984
1.6641337313388014
3.141923667693892
2.4721796620894207
1.7519315185650113
-0.34705974897271197
0.8413743250882523
1.1726378447728403
2.851808463619427
1.0302288178516645
-1.2375536053832639
-2.281940423429372
-0.10744490163948046
-0.6020864014461718
0.49251539917560544
-0.4872207797278372
0.5487680261216767
-0.23418452180619753
-1.1851059900639394
1.2558722031336889
-1.0534878728282153
-0.9970978769950262
1.654205589872276
-0.6212399772537686
-1.0742008291138903
0.2045441349597144
0.5250617850733514
2.0811428142380404
1.6743179192885425
-0.5574965390493475
1.5415067479821327
1.201061431446575
1.0354839308184742
1.118750666952873
2.8830836549535865
1.6886013038541952
0.5498465092532299
-0.7399281363361733
0.6098028821563352
-1.372596685424892
-1.600275298294518
-1.1303596426402014
1.3194831076393654
0.6136655191433819
0.6245075967394677
-1.0718324527379643
-0.33531532042114365
-0.6997926333673528
0.09128631882908604
0.5429908253334635
1.8461014389856811
-0.07920945781693046
-0.5418741952663796
-0.29298839335976495
2.738859735895867
-1.0509739897336212
-0.17425764038926608
1.939851959040654
2.77380059727322
0.45420095667848026
0.3516186684144882
1.6187116589777089
-0.7587546692109806
0.1905802794599756
-0.22374721547277682
-0.16221965079079345
2.1583934954506843
0.33596787161251096
-0.4713782808550901
-0.3735580101850412
-0.6005994795393566
-0.7023256240831489
-2.4060594682868963
-0.04648251305057798
-0.2608144470770369
-0.838290932294214
-0.266082370349128
0.5363241889249176
1.8875124052894678
1.1839925074549678
2.734998010950059
-0.39537997287138227
0.5652792033903575
-1.590744011445533
3.269439192938137
0.7521766322162659
-0.9214640894364109
2.313045997337886
-1.604301989500046
-1.7703965529492178
-2.501663318722163
-0.8542715984764948
-1.2782596008275384
-0.9619134840930438
2.154416040965488
-0.4933234129098188
-2.6148029685276124
0.8676224321656313
0.529055329524647
-1.1927973358844983
0.6954299448890903
1.0274319586256566
-0.4354757438325346
1.7262082682273974
0.041535779337692334
-0.13985896539464673
2.4835644266467614
0.7649968719086487
3.51656603809961
-0.12323073788149745
0.49716220280042234
-0.27196130453032
0.41715570589920387
-0.3506549416485696
0.40219780610925676
-3.9898279604850906
-2.7313308787938535
0.6686063594121291
-1.7005821171758482
-0.3069516815057038
-0.9620964465283107
1.0792124484192784
2.259416120888178
-0.8913500933280689
-0.8341720751188344
-0.156335039711364
0.8629171985212406
-0.012494813577897184
-1.5162356289945826
0.9872490390530055
1.7559255172357646
-1.8267149663669864
-0.2411550605637617
0.7202974186891068
0.6414107030910823
3.1868364276673344
2.3163318938678983
0.2909605404076552
0.5884495998207857
1.6060929104567254
2.604506529767436
-0.649600197783439
-1.5528622086445258
-2.8313553022466484
-3.0608975946127552
0.6918573333123008
-2.83702655089135
-1.3270065088519136
-1.6150434557051565
-1.0109755674339562
-0.5264410709887084
-1.5393781854768134
-2.8299964912381093
-1.2374744101996316
1.832428881460054
-1.1747462930069175
-0.2686950478666427
-0.24866923801929533
-0.7057061234487471
0.020643114251091332
1.671466187838881
0.997238691624324
0.20112211529060708
1.8538427794073251
-1.1052504800811063
0.8274609426587303
1.6587437345680618
1.0169568127825535
-1.786087365975593
-0.9203218437489985
-0.13203870658611763
-0.2593651493227758
0.8245388479828223
-1.865603803000641
-0.6877405946623638
0.873563065517267
-1.094700328980933
-1.7431557274847402
-2.0009433223362634
-0.5326675180804208
-2.8174643290209267
-0.7442602465372987
0.16190927873892566
0.9918501391122092
1.2607402489688968
1.017378267865884
1.3456115209505786
0.37367029163691
0.6334427584421469
-0.143022609343419
0.6616525964132295
-0.07543591413924114
-0.448891404256673
-1.0836978741835936
1.084416071356473
0.2120179494823848
-1.248231260654481
1.6646754588176522
-0.8627053981587317
1.438387163412724
2.422574478245244
4.114003945529414
2.987433920283212
1.4236178792301977
2.5587269526036653
0.57978793939106
0.4631982183958394
1.574903912532554
-1.7675398439969185
-0.5475543534693196
-0.31989618738981385
0.8271655472750519
0.2721658415238691
-1.0238047723002794
0.03176405520525596
0.3375096641347334
-2.6846850549635297
0.22959449961271589
-1.1349732834723028
-0.8315684812554011
-0.3925412693645113
-0.8972921286158918
-1.069216066164504
1.7910332729799892
-0.9252787803749994
-0.7642095823510335
-1.9347497632334025
0.4042692638173317
0.2951860022405925
-0.21506323381516898
0.21501465940523226
4.884293396302545
1.938489707629367
1.496813120753724
1.6262446793328214
0.8537589834525147
0.11429753495167552
-0.9688037228066627
0.015471862518417622
-0.03466280695605724
1.4297359556424027
-0.3822796918715457
-1.1757651362081725
-3.414657900035705
-1.8497741590697692
1.5348393179625863
1.409642345916131
-1.2420089686948854
-2.64005016056955
0.7413069578568807
-0.4543556124058956
0.22726538595062093
0.49339485153443996
3.263672359583126
-0.22450271415286566
-0.4322475845120809
2.7117011192336036
2.028496682718667
0.43418198271464264
1.330911313031089
-0.7879905217660426
0.15126513301486857
-0.20784876611186062
-2.8976306660824926
1.3122121309976305
-1.152941089516993
0.898716083044599
-0.248077351144203
0.9358613263782734
1.8406485327168978
1.0822156600052462
-0.9491567654692536
0.5573570255342523
1.2597056887091918
-0.7113536476371726
0.25714710813407854
0.6025819927470927
-1.4574274338905406
1.347320989407889
0.8652147001906374
2.56184740305572
-0.1880624604956139
0.37477584658010016
0.08084217957066946
0.026804285239853554
0.39287751695377077
-1.931848472405383
1.654116235656472
3.511010762027381
0.5108836619878916
1.1576472684049344
-1.2893908109188357
2.874699602911831
0.8537926115511337
0.6493752165122422
-1.2227296833904553
1.5297863006450472
0.4264444674599705
1.825250083006543
0.28719557465467305
-0.8230913470105079
1.2101920328683307
0.02598566040790611
0.03485247908717773
3.1954736261969527
1.0935472805295134
1.3371744641846905
1.5736472838844868
0.8193287702604298
-0.38761845854815546
-2.0871625652329726
0.019703559335015386
-0.9428100368460031
-1.5607858850535843
-1.5315258378599814
2.3151136249626876
1.9011101457788886
-0.337261039194541
0.5889697819275911
0.9649248439566916
-0.5209662475534952
-1.2866444014749663
0.5701004411595881
1.6188838185796603
-1.83352286968898
-0.966028583667254
0.5201796334998263
0.49859800930431664
-0.09013792306292062
1.3806906055814165
-1.3343663820811285
-0.8995605832251405
-1.714031810908084
0.4487733428850535
-0.7537027015619607
0.33561975458388366
-1.4451306862855204
1.347769293674285
1.3486206995271557
-1.6338680583627438
-1.0562206476063423
2.1760544178490218
-0.14047009866281654
2.142709013993863
-0.1469872388528885
-0.9714177339975015
0.8547669089598151
1.1793928189413587
-0.24468302118962287
-0.5036693173509086
0.9193725386618073
-0.13746789887131092
1.2849826346587359
1.4241490222520325
-1.1343755749980864
-2.313636145390785
-0.9917136303987383
-0.49054042967493333
-0.4340369128447205
-0.09558482786552475
-1.5068882862372768
-0.3174798767595921
-2.8083026633240857
-2.031159469444994
0.8489762745155204
1.3168491464698004
-2.452800987493217
2.9490476464861852
1.5083471128373487
1.9353171823093585
0.4893484753301275
2.387367181583547
1.7809076313594845
0.15812263357593595
1.1665269210061682
0.2815823100324195
-0.6312251880786718
0.3502262761721281
1.6882477617998832
-0.5947794437975787
-1.272043666003966
1.2323301535680462
-0.13002332638817385
-0.7378523629338952
1.4428629803323278
-1.1713655746330107
-0.6807358403383849
-0.5918864832912742
-1.3171322906332106
-2.6766134130242922
1.822903533740174
-2.8428770972984054
-2.9345841348211605
-0.4916084719880191
-0.86762434714311
0.9841013746814785
-1.0972222801348332
2.668204819109753
3.3050619504259124
4.630863733020573
1.0374456385479682
0.20600208064986006
0.42690639790653034
0.1473573175843714
-1.5912787219392497
-0.21467247730615316
0.3142703725537559
-0.4048586091494945
0.028538802006568102
0.7458956379723386
-1.7331392347124113
0.9519187008807583
4.3028843622593556
0.0749163711288714
-0.47101078641217053
-0.29385018448538974
-0.17298386285829995
-4.89282005297312
-0.5505803395172764
-0.48198435441669074
1.309443784281236
0.11634846742082344
1.2606869691297042
-1.811211697465532
-1.5725662241413472
1.406237326693144
0.25692632397815907
0.5603647040881586
0.6072983280855028
0.7885977704204489
0.37875472401058013
0.14522293469666173
-0.7125505907281414
1.2551096827005148
1.068254006045455
-1.828164085479323
1.1620186308304559
-0.6032163098842267
-0.3787123970224958
-0.07428099919481543
0.3318745303988607
0.20421815831953233
0.13164678819210263
0.4357414488634704
-0.9005421858568888
0.07557509408647844
1.3853132107681403
-0.1548616554266369
0.43783994439699475
0.07842132655621632
-0.05248725337936013
1.199814204713585
0.18294668825193752
0.08302814885238179
0.8771883369119889
2.393688284875799
0.3638921035422704
-1.8131700408386937
-0.5122513980797764
-0.37650073261831846
1.1401484552256282
-0.2980115480600518
-0.5369415017145722
0.12177226334229978
1.448673499562632
0.4751235643710655
-0.17808547864255053
0.3310924657131665
0.6081687972269866
0.4807938605866605
1.12692581350181
-2.211091878319038
-1.0794395481806836
2.206906097647215
1.762756605641588
1.2245862535510554
2.8136672704518957
-0.6671591335375324
1.79075189134974
1.3205623507264632
0.32738838437750156
1.3823355891934819
-0.4811580510249811
0.8484165109388818
-1.6406796768832848
-0.7281798472898882
0.5374636846374132
-2.057928215788103
-0.38582907490413487
-0.1184143907662891
-0.26228163442479785
-0.11534027654694977
0.8402533686406787
0.3552513444570484
-1.618184340151467
0.9179146131475044
-1.118295821477501
-1.685894577767614
1.6227164240550742
1.2220046468126704
-1.5407997851681727
1.1632751573525322
-2.282928090516032
-2.6194330649592534
0.8186738956480896
0.7484072827431346
1.441753301686353
-1.697083240339531
0.1635078402022462
-1.0788210341346693
-0.12490295993689626
1.2087395658265696
-1.1152014161915509
0.640174505783908
0.11629867641784192
0.2515826166924546
1.0828049146906535
0.2559987302957571
-0.8383154226766081
-1.1600210920682403
-0.11687394009838789
-0.771506872345191
-0.6016284455948875
-0.36739055352259165
-1.1541715897492473
-0.2130347029873214
-0.28948869187442855
2.053960443217517
0.6344584275751086
-0.2147864395554117
3.3925060944364893
0.33095868997697564
-0.8585746290047617
-1.4062338703261084
-1.6162208405482492
-0.2272637869735872
-0.334212424595588
1.7748900802980856
-0.22533405544467325
2.242240234375561
0.004166379694642878
-0.5825408967970319
-1.4399746139252723
-0.07918089636894744
0.5419478190787004
0.9276524937720759
0.7108601555931544
-1.5750932077212043
0.49489580185940646
-0.22375853124835857
-0.15517254557935126
-2.415576608856278
0.39353884316862753
-0.7949038809398763
-0.3061053515399751
1.4092730387744183
0.6258922402680784
-0.26635258084342617
2.8389629184489706
0.8355092283606832
0.6427011051039834
1.1558929474152755
0.08753043579162507
1.9424235660369684
2.526149494357307
0.035835455149830206
1.253324036324335
-0.5177502106770988
0.9845912361984638
-1.6898124738775435
-0.4839561368094775
0.11606900338885479
1.4806071512449615
-0.8081705627637171
-0.23408062026664544
0.08963399546023713
-0.036340426834286475
-0.19355388069587698
-0.6293838267496727
-0.3312248449347134
-1.1061202862863453
0.25570151211686765
1.2246456937290218
-0.6564948339059482
0.6722698921084213
0.9505191664985754
-0.858030048234206
-0.8585421065718093
-1.3915166428695946
-0.8392136953918511
0.43241627885894734
0.5733194385603747
-0.6421826029227508
0.29591074913730087
-1.032938594165478
-1.0632227424307115
-2.0252029672649345
0.10548951790657547
-0.9735200372329821
1.168006874516818
-0.23710813263794972
-1.1188895719501524
0.3643198271489085
1.074067309085733
1.081001713241128
-0.19313227292076338
3.9141794088411354E-4
-0.18073416945396342
-0.7137554211893159
-0.36831733725382465
-1.2746458028057728
-0.43462942307790176
-1.6988196063333174
0.33739466415629366
0.3247183868076625
1.1228742826953204
1.378228042654193
-0.2554147352253132
-0.8485211843948438
-0.8134912816119952
-1.3548037684820633
0.20780712280276023
1.3738038055089046
-0.9420829416292947
0.6467027028459059
0.42259994718025296
1.0379845974084376
-0.20205042398482606
1.1979561785771153
1.14953538734425
0.13044438943921144
0.14491235979187542
0.24769622870410868
-0.47461125267562626
0.4863853060664591
0.3308858573521239
-1.1243825331622457
0.49564687983559225
-0.2495683650679016
0.0012431610887853593
0.7174506251978358
-1.791183468049792
-1.3951249562821006
0.2619453329207818
-1.2606162453682785
0.32528558277967295
0.12448136662620327
0.0059107852952094714
0.5688779726253608
-0.3275454801319804
-0.10124685463050563
-0.1531549920997651
0.5131049378752157
1.7779988170452752
-0.4997676908597255
-1.47443865149402
-0.45067125062476354
0.15302306542243105
0.4064849554842244
-1.1499315626981905
0.961477973582518
-1.5201561114110391
-0.027478786598447002
0.2234846535112944
-0.44987595269967967
-1.2137214335218285
0.9321212755261309
0.0022789889301749106
-1.3878315422813863
0.6122973048879022
0.6290239325182537
-0.8473166296298567
0.9247455326683927
0.9280346781398852
-0.1016067023602826
-1.4295227367280747
-0.7062170189943779
0.24359945319847082
-1.0563146504810141
-0.05753280196952635
-0.27167206605161637
1.4765447143105255
-0.1541129325610139
0.6379371680866461
0.9456293482183569
1.0574350193909712
0.07623154196126365
-0.7748200817806841
-1.064769285745832
0.5289927552799597
1.5460267471948606
1.1220999308328563
0.11439457051019593
0.19777338333781963
0.399525186965382
-0.7052709808571511
0.1694365228110827
0.8689325416559025
2.0140462749155623
-1.0773664910451726
-0.882123477918513
-0.8675573727484577
-0.44968165852442926
-1.779133098196622
-1.5795109952240107
0.7383628479062238
-0.12957853212890294
-0.8415074135825137
2.615648720879717
-0.162422223858541
-0.2827974270456681
-1.7661829263217208
-0.7163019997731083
1.869531782688346
0.9719113032113287
0.43774069381901637
-2.0450185209889704
0.8317452210551247
-0.5503770948250871
-0.6178854533454046
-0.6477829655115341
-0.3015520682593421
-0.12862055047853174
-0.10788347940322066
0.6345989034190008
-2.2130279748661983
0.6457605239289228
-0.5838082888302051
-2.0755519802030937
0.8644480953794814
0.7624870696483443
2.2993908654257003
1.4799547027489421
1.3510845471703021
1.7995398061693166
-1.268642940067937
-3.256714922659177
0.4175659577651605
-1.1408507271941288
-0.15955245979636237
1.1313769268940255
-0.6499234456014531
-0.008792347182228342
0.9328290296590847
-1.926559585497173
-0.36523397448615114
-1.1176437226512905
-0.9626201061036818
-0.5572100867621563
-1.7942892400576183
-1.4362200963941683
-1.2702692412695877
1.8070341598649464
-0.07557068662052517
0.8334486949199486
-0.12297332553554825
1.161751894701874
1.9465521744433032
3.080336798962068
1.2598155108325453
0.37895210114813294
1.3830638605001433
1.7252910628068203
-0.2257678280395952
-2.589543007747895
-1.0171715877527214
-0.958145352220073
-0.031100770989343784
0.3008365326717673
1.239582662531764
0.24910574555354484
-2.798658704177721
0.8172580200794024
-1.5754487640073433
0.32980540161842986
0.9053217287075587
0.5820910654515218
0.006446652176094813
3.4527697655933696
-0.39393428818507426
-0.04067376522022067
3.070012892088788
-0.2938621494921339
0.21469727981152478
6.197467426442028
0.8011571913454809
-1.498143605912816
4.319070294572823
0.05622832231669189
6.423983091579748
7.617637500358658
2.653052278276927
2.5705525045589743
0.5153475174869672
1.362613513176137
-0.2585126692906114
-1.8828743527182907
0.751662019553664
0.02671471453247236
-1.5136947372210958
0.42208379627230525
-0.8568993298171833
0.8725541554922777
0.36589303745006874
-0.5839120955076839
0.6385629631244598
1.0064563591332194
-3.8019164630099995
-1.3683638137477339
6.261266864940719
-2.9449532800803726
-4.445796317083111
-0.5953340413156981
1.9014318622615063
-1.6250108841935151
-2.916146088666489
-4.373373809335576
1.2477510659782316
2.13248493382235
1.5772601794097125
-1.704640624152371
2.1546367991344706
1.6991064983266992
4.002180129655574
3.259266753769846
-0.5007039056465377
0.7087800883250829
-1.2759334389594494
1.307187550312332
-0.10080548617276386
-2.114105104911767
-0.25289197263005203
-2.310126306124494
-2.131331125385596
0.018339738342118963
-2.1955989311222828
2.716940259626907
-5.9787492026377365
4.502133401754513
-4.287093815581268
0.7834876295150751
0.35155432873377346
-1.2684578881279671
1.013597438107308
-1.4425881042487358
0.35040240569671266
1.6138883406646685
-1.8300111064065403
-0.8208149864922198
-1.3665323940854819
4.459731166778095
7.0159343348466825
0.2545282655331456
-1.5778726005789387
3.4168543087299335
-0.11593181445583567
-1.3167210441601724
-1.0844920010148362
-1.0010075028443195
-1.1060082036932417
-2.5914606866173138
-0.5077176151957108
0.5701918833526324
-2.462459609816078
-4.321285975342358
1.7327374655153882
1.0605766156128336
5.4174239413528475
4.1384027728707125
-3.238189715212535
-1.6164807819432525
1.5225455560671088
-1.5738968098486168
1.494613069886328
0.9951990246424078
-1.8821939474730456
1.6019028194198484
1.4981117353194144
2.275656794175982
1.2723799197345662
-1.7394446128390915
-0.3454304960320868
-0.3588774374195101
1.8846496274278641
-0.7819159514007841
-0.9774379895108568
-0.04284800300895675
1.6532274067506185
0.24803603422394438
1.104100434278552
-3.454673504569305
4.455702070921928
-0.9189639615058693
-1.1521028455028866
-4.7187307194309405
-3.7201043030156096
-1.8269258477330668
1.1611038437706211
0.9855345880464702
-0.3144785598743822
-2.6116502422816787
-0.5247951269826903
-0.16384866898020725
4.5230341163664285
1.0056747685654073
-0.5055689113766653
2.84218704573668
1.3664651033474657
3.0103681604050316
2.2379325942508324
0.12733533689834592
0.5146910725872791
0.029292487556376333
-0.3810692928125946
-0.901280748155321
0.21289433869098312
1.3404177225855791
-0.31981831381693626
-0.962223614419165
-0.6173772614770565
-2.6380897846781375
1.6547269227148804
-0.015350828209932504
-1.1012113327278452
0.20290158929791374
0.3617198593999273
-2.469964752027373
-1.242423477660532
-0.6738005115584484
-0.8067574173847899
-2.3216596704347103
0.4947587889899251
0.16871125836056827
-0.5649526188382181
5.464867782787074
5.7546185150660145
1.891191525205776
1.6145084762887558
0.1482573500808956
-0.41393625977497683
0.8688875370430809
0.35761176264403877
-1.9847304098083594
1.070736982787308
-0.7533389960592421
-1.8891776049612896
1.1181149207531165
-0.8077294835103734
-5.397444345196358
0.3911390031249663
-4.70482161878843
-4.5315697243998905
-0.2261881926459803
5.91925807268584
-3.8329316924289634
-3.932467020509504
-7.585411873044148
-1.093910739862704
-2.0499150753702815
-7.799529554234596E-4
0.10446664962708234
0.025801735394348588
6.003269275122954
7.39576963537259
2.407007091333189
-0.88577327955636
1.0198759984237418
0.6831074347643292
-1.6963980059048056
-0.26152917786433166
-1.57398097230405
-2.6955084011386443
1.3856400504123267
-1.732366632358032
-0.9964412501761731
-2.68520491333593
-1.0203240640400373
-0.03100284377945208
-2.448236283491924
1.4308590663827503
4.079848230287438
2.173817445319964
-3.245656297173611
-1.2214775347648288
-5.313762249348827
-3.397109318486947
-3.1388120400550945
0.25638482305394295
-0.12851961453969082
-0.3365232571973447
4.057576660711846
4.701045678743429
0.7498222384021976
-0.968690254690486
-0.09398208747736034
0.40074616491416337
1.7176327077852829
0.497497440012565
-0.7666527624948681
-2.094097883397417
-2.206666036284952
-4.76115113717087
-4.6051831446198985
1.5107968609286624
-2.761633226202197
-3.2973924229466536
2.5029309238104647
3.560946240586154
1.7267352554805557
-0.07030472017497653
-3.4461192477201164
-2.210923031603462
-2.100013897055519
-0.5571182129531532
-5.267600458631234
-1.553790668207275
-7.677344625809039
-1.568453833661839
4.866933845431136
0.19151940200149126
1.0053948538028754
-0.11537340894470086
-1.007995928106511
0.6125304784503808
0.7428149746545117
0.7431483847331338
-1.3512024251000285
-1.1474294903366729
-1.0035253440581537
-5.338299443393597
-3.6329442519157684
3.1262125616104974
-1.908332123407932
-1.4605476234437536
-2.4298448088120104
1.0729314328587922
-1.2589730245437063
0.11025768341322316
-2.6675618393834393
-1.6861457244996596
-2.1431210163051766
-1.6048465400738463
-0.8832218472876424
-4.420904655368784
-1.3630202773242377
1.0409641136227243
2.0502197260896877
2.317975243406978
0.7009223374162721
-2.1036308135659496
1.5617216759865233
-0.4964394897725775
0.8088946455992001
-0.519047994816436
1.8621104968108892
-0.7091013971542662
-2.096153322470842
-2.8277398341790656
-1.451558720443824
-4.122723786417079
0.10964076374957545
0.6431109222481548
-1.8820765661939491
8.338553760933236
1.343347430192596
0.9527402778160499
-4.353851393907548
-4.131922704906496
-4.756927160148412
-4.641901444111003
-4.999972621572378
-0.48952250184305546
-3.3480498048470295
-1.5817915786742038
0.0252363462560413
2.112622888688296
-1.1043253721638535
-0.04712473088008056
-0.46658167918200016
-1.4260718521569786
-0.5401433383043888
-0.08637584765740773
1.446624508137521
1.8077370275419
1.1129149427556773
-4.051420609923007
-3.028575380140672
-2.4093015797466903
1.5869220640106807
2.9347848514485877
-0.6486500083228457
0.9399040839272668
2.204056102692198
0.054772363711124546
-4.34474403048136
-2.280571069950439
-1.1903703712230622
-2.5813933904830595
-1.3717497007610104
-2.2977533908521184
-3.6524326195974246
-0.20489798217052982
4.1666611344053415
3.3100168033337325
0.2453302707978872
2.1632875335957005
-1.0899488525246814
0.6972144107165654
-0.8970739754750308
0.17801491440722217
-0.5809972971117646
1.096837031668561
1.674213418623493
0.8920106268887235
0.29577683672160276
2.5929415418608546
1.852650612613117
1.7183262718190104
2.7978747926696466
0.7794658801761882
-1.004089914230805
-1.228438836881626
-2.1740515335292505
-0.1929308499113958
-2.706544070092685
-4.972595041879991
-1.1882476539905853
0.7907466285645053
-0.7545641748149027
-0.20566589367634014
2.2078688483168905
2.805752693382974
-0.27520490434914874
2.243724176883026
0.19246052844335557
1.0846097238572703
0.9553355416511283
1.23544586939449
-0.051406177385860986
3.1825905634993985
4.2411579628831415
1.7662486552996712
1.8611320499470811
1.366577413099229
0.05908082390093712
-2.4874190201413517
-0.3866759314884555
1.7214561728044078
1.3006878001162854
-1.3320390598988856
0.28123487569296546
-0.07877198525037102
-0.1526386898195849
2.4918374615435
1.1967058478738835
-0.03042627817778959
-3.107709773615947
3.0488956910301033
3.0981776482897265
1.0876161938085955
0.6354816375489453
0.19604328447140484
-0.1831692396413788
0.5426421562892924
0.9713804130995001
-0.10253120359019362
1.219640991841568
-0.6382342274758052
1.1843522282861398
1.5824643470313124
1.5696661386454185
1.7402668577159284
3.1288168689000218
2.571711620864773
-0.19775569191026052
-0.03402011440218952
4.398100215098799
-1.4377809729450497
1.6817956885791567
1.6552777160509364
5.094267901405803
6.050287868705052
5.998361749163831
4.764374207148096
1.0538707271366314
2.7362664274542854
4.229476792181962
1.9435350556990916
0.6817691729335744
-1.3246864654013595
1.0028285351288162
0.09984830734654954
-1.1923543299576178
0.4518744851078755
0.24108506482924974
-0.02326165055932228
2.3075161615493207
5.644382899607884
3.335420845411164
6.157713920102564
6.107573914379456
4.90593112757657
4.609024973586405
4.909419256798743
1.5323143881120773
-0.20181152498490007
2.663219757183041
3.5927975924337887
3.790130586562747
2.978331705979465
7.446148580529766
7.328635518921536
6.5638948708673475
7.650863313017026
4.917431228038328
-2.246781234135166
-0.2194305486936737
-1.6262215131418771
-0.3453118508472112
0.891930351919416
1.4878674537230774
2.3234900472155675
1.4126926039457641
2.833498275294166
1.8960841173507357
3.8152676004898325
4.765474302943013
1.1408396486693722
1.2418813478509756
0.8692409907592706
4.348383011985542
2.471957804540433
6.795837235762816
5.808740794043221
2.9742464318463036
0.3733471140897514
5.489094828612894
2.0762988731055008
6.4676623435565475
4.269827507927204
3.9588741732189496
4.17701848366364
3.869862246843301
-0.15376886536776968
-0.25145640335775205
-0.9443139448045448
-2.2937165712375203
0.274165594865797
-0.44554153154639253
2.182685339714489
3.3003349979313703
1.3752671967436088
4.198900694234264
1.5298788523973001
2.258561427538261
-0.9027531758955942
6.39372586259691
1.992091590264577
3.5564068000724562
4.252183284911779
1.3948862606111736
2.6894064284854173
4.3450535803434365
-0.23520948610335032
2.872054357852372
5.658861755175257
4.1315722819500404
2.8836409547062924
3.1452072435783256
3.0073300955855062
2.3395936749832424
0.6151873985630839
1.4779226956234637
-0.8203252988056512
0.29915241106292917
1.4737129808234302
0.27299327276713004
1.4115552720890225
0.8222088083055599
-0.5887019825268316
3.732948162463495
0.16553268420841605
2.0543633925809384
-0.45417085926116574
1.9650467170724606
-3.53968287121983
1.912177963429204
1.5807665126462884
4.266687419466178
1.9422269279574933
5.291464184973815
3.72509180670012
3.087420297071946
-0.13328949751536126
1.3051928837544813
2.3781758793628778
-1.4769131442205872
-0.03437819693138032
1.6421344647930547
-0.6367150693095148
0.6748031686563396
0.2597611752399807
0.730665932784476
0.331881905696319
-0.7808635833560358
-0.318127477319842
-0.820727175033348
-0.8800054739677823
-1.1344484566621909
-1.247362617760772
0.2050097693047451
-0.11713895195828776
1.717073065104057
0.31657085225647985
2.6211745039314085
4.687826739446483
2.758230809626653
4.168037765790562
2.8052735702565315
5.954643710216149
-2.0152017822469372
-3.7480610154847844
1.0058382626782978
-2.2956354640857404
-4.6229181320541795
-3.6549458149996394
-0.12587894576485115
-0.09405768039329689
0.6042241188464449
1.843318228209958
-0.9931461479995989
-0.3854837842753419
-1.4221662973774936
-0.6090011690434926
-2.2475096889344957
-4.899318036182958
-3.653964250710124
-1.0365840961263724
-2.045352237544947
-0.8122617630430478
5.963814111962696
3.025478613497249
1.4933524419915511
-0.2931337305725225
2.43974698979282
-2.232283161504081
-0.7295420867535694
-1.666855843050011
1.0624365856623785
4.489465820089623
1.8216693727971984
-4.348349788397061
-5.635966216103798
1.1118877539545817
0.08934774342786153
-0.15565157977477168
-0.5726906107468392
-0.6103678020861929
1.2152552662795044
1.8315447032062777
-1.2063122259722854
-1.5615643691964196
-0.31481105397057185
0.3911858906766026
-0.12823294714739614
0.1513481857269281
1.0051611862361507
2.111051676841627
-0.38187266460674346
-2.023301285166929
-1.4102563439939675
0.31738378333768835
-0.667661052404689
-2.2543916776940467
1.7124803328583573
1.4880091553596642
1.205819776463565
-0.2516540714290107
0.7743022710352139
-1.1976050517510142
-0.06771963967765304
-1.5065287514675147
-2.9433938033557467
0.8370392998439854
-0.14775709313926633
0.8566715606183383
-3.936549727370142
0.7564620319971109
0.427282002220073
-0.5046845643012964
-0.7191469242095156
1.2230353021515532
1.0974491350742683
0.6318116026459637
0.23202670088367713
-1.1003865954188004
-0.4747988608067288
-2.0021368151192993
0.7387842937600796
1.1296391749792132
-0.13167889714984324
-0.022099024514108143
-0.1497909793057408
-0.3041107571841915
0.7675364694689137
0.14799494235471036
-0.5555643609814733
-1.3727758187117014
1.8761314262215365
-0.31269119843898613
0.26960699120243825
-0.403655008333275
-1.7941448629084666
1.1544267773300494
-0.3391204497436806
1.9123294429154907
0.22249459066539615
-1.5786959565548686
1.1440048963993912
0.3565671994207674
-0.33271407678874515
0.6380284278905708
1.3218841464696593
-0.18874564179915643
0.861372914379278
0.4882644705563043
-1.0416559950670188
1.4224619267029783
-0.17556596651916875
0.1470704399610983
-2.5124251745405766
1.2793071710333261
-0.42660668461375306
1.3689746289801152
0.9810451643344231
0.3120403172460686
0.8744055022804976
-0.3262806236837688
-0.447602458299664
0.8992295474052164
-0.20611903423936537
-0.46062941939675806
1.5347596154948144
1.6209569752971793
1.506830723414179
0.665706928710174
0.17683542569414282
-0.27605420156618715
1.034984292299396
1.2497613185160474
0.7971314521856293
1.2080222639699258
0.31381959076903637
-0.38099775079296433
0.12293917244650841
0.28501222334062154
-0.9629235117436085
0.7303406824550956
-1.3217426091194575
0.6897099038343908
1.0593999037038935
0.7889275508383359
0.12333110779949143
1.9538631994579458
-0.2116985426112362
-0.17919561482548385
-0.30332732160836645
1.9641968983865532
-1.676444260883587
-0.1523077297238894
0.8034021062822024
-0.028356042783565443
0.26240749454713497
-1.1832465489064268
-1.7175235928993977
1.2242443435364398
-0.03764213425908789
-0.7105819106168704
-1.5115283590423134
0.8099405693239441
0.638236977211659
0.9131441811276476
0.49520104793526787
0.32021450937792867
-0.7658890014310609
0.1006983928685404
0.2522501771764938
-2.1712549801589427
2.21407605014047
1.485912534727309
-0.48535559355862806
0.6362857188497226
-0.26085027611648903
-0.48028196280183694
0.5906915997409421
-0.4637614365852819
-0.8224562719656279
0.29474383822050165
-0.6729814909292957
-1.328463958671715
1.7312504776427047
-0.634601612353558
-0.5045977896596415
-1.5508555131735473
0.6781189988143906
-0.19895621757232881
-0.4472652178000198
-0.14174939731482206
-2.3625870891063676
-1.5226105702325852
-2.3163891008640567
1.3453437910077986
-0.13635425864531522
-0.6111177654211457
-1.381049717602627
-2.1528844806498064
-0.4789713671768881
1.696892201154101
0.8959803165867869
0.07831920615192262
-1.9898254368391672
-1.7842393606741715
-1.42969870766084
-0.7827044920908487
-2.1823997633860026
-1.1566902934923058
1.5791856407328118
1.223760445574974
0.15070405410927168
-0.15772286280200465
1.5888418196375376
0.6939712461190047
-1.5995593347289319
-1.1710254928047468
1.5838330484726795
0.44725865132833115
2.5573439675201755
0.6270595150521464
3.015029329522569
-1.087001093090008
0.8276146304454125
-2.6366965263296214
2.398772986105956
-0.6655492499482716
-1.0285881923418456
5.164201811742973
-1.5066168190774936
-3.9490687330225787
1.2377493863405893
-0.8142789043302162
0.02726489091982261
0.6114054130226115
1.7756868654164066
-0.1284239937075235
1.2333256876932013
-1.8577514929948307
0.20994602974953436
0.2977624833836628
-0.8616118117745115
-1.6985116996683456
-1.2402798348331567
0.06732602138469267
-0.6886588059871159
-0.052650410687443125
0.5409331454961368
0.567073974850379
2.781223196428236
2.1120045204845246
1.7210026717507685
-0.6140979570196244
-3.1256463348378354
3.583702379655501
1.6815534112716088
-0.5182588614978613
0.08850626538591068
2.2973276521248582
1.0673583515433376
3.169182323131125
1.6910879928558409
-0.0825044479052166
0.09793066561950227
0.8167411033848891
0.3313901046517108
0.7082084290857107
-1.1589027247034216
0.8636276232976028
0.4731790438908615
-1.6912885095980055
1.218728873876135
1.71204658302821
2.380216382354688
0.3940808053896644
-0.3493387155024306
0.5501983627901327
1.8418788514047155
-2.6898583648357475
2.70155816571157
1.3378775148064599
-1.2880812482631512
1.2642691195579685
1.071329292785497
0.2169763144474131
0.5099028045920725
2.552638113354584
2.2136125124229005
0.35017661322514665
2.1547865408652207
1.1225193110279115
1.5909124598006448
1.653704316967301
-0.5652291171946131
0.0064394432900678
-1.464562586822863
-1.1732399676755159
0.952703553784549
-1.604204103585726
1.0079485324319546
3.4014315102026247
-0.04407112718712743
-0.7829955435170493
-1.8782589380159411
0.9779977403952944
0.9887730355754599
2.800674384938154
3.397541509686577
0.34767471135749484
-1.9307216183244968
0.8428518782656036
0.12056155784329824
-0.538300552327517
0.5037658414166443
3.047936819861997
2.7759982127710567
4.126114291234281
0.3666192048584728
0.21757342465541438
1.7138412194359993
1.4341485689993982
-0.05774562147060767
1.2509640848306058
-1.8161047371420582
1.0439151001132334
-0.5107951638218265
-0.31850717958711633
0.682894237573158
-0.9930983214152879
-0.38305781090367835
3.299796416523996
0.7479141953613603
2.0848153097536755
1.1134782291040108
-1.5868559966428362
2.177112655965188
0.4625480157628739
1.2092442021003595
2.661847878350033
3.097270249033175
0.6505882756834568
-0.0067900818872912855
-3.012882292330007
0.06056596169579181
-1.4607735732032825
4.693697983044184
3.6302524007966768
0.7826464724774753
0.7036983536319051
-2.3897197440476803
-0.480971681472594
-1.3325251384678642
-0.32519493314782916
-1.3728519176654468
-1.2067135268737001
-1.731599089644546
-0.05095310653307485
-1.8228107509715372
1.1233389063988855
-1.804822091989193
2.6404255397171554
-0.48790844684819845
-0.16696648220118915
-0.6405385947244574
0.35461903557676844
-2.6476172247851504
-1.5058545847340339
-0.631185386885167
-0.6435442310758779
0.32309141748025433
0.13156605171806895
0.9703308108133674
0.7047844797657158
2.1808414749412957
5.322290041623427
3.1788435901227463
-0.08491653699848671
2.381618339184202
-1.438473534503077
0.8718422919638755
-0.35991194078454886
-1.2642268370345005
-1.6764080723871908
1.0710339811549185
-0.41912584304575545
-1.9717491865379337
1.8808162723649215
-1.8747337103358386
-3.2313882457006384
-5.264936368963363
1.7636569021883397
-0.783234279455774
-1.7628084729803821
-1.2974816333085648
-0.042178159584926996
-3.106106049308091
-3.7147885700990995
-0.6696533395080856
-0.0441366269890102
0.41287606369566704
-2.163396349159031
-1.2218321834199022
2.1149755659683454
0.9300108579789265
-0.44871798830150883
0.2939436996446691
1.2278842345944598
0.13458431358858378
2.115589244624958
0.3058345776646921
-0.6916183137763032
0.04061940294818431
-0.7281591116185803
-1.6949895144638472
-0.9416562554419591
-1.9774824316097857
0.09728596896672857
0.4741476521126094
1.5298998357821494E-4
1.103881813538402
-2.63254031792194
-0.8063510091950984
0.4170007711776468
-0.9854515595042513
1.312804732430421
-2.7736110262897133
-5.509074199934785
-1.6976771189526063
-5.591146686833771
-0.9214423226916164
-0.1860478238677677
1.6154023533602762
-1.2283531231126998
1.5229015044108298
0.6439004150731631
-1.9858573016988055
0.2412675873610309
-0.2127543421632411
-1.8722822040061002
1.0340523724935062
-0.9963886966903652
0.646492859459875
-0.2417999876929111
-4.027900568770224
1.9643068421648289
-1.692893255132212
0.627100575972467
1.8301709980018452
-0.695776012058321
0.40908230032899895
-2.3227550195286413
1.6346792226880051
-2.569425478221114
-2.812187580210629
-2.9425427870540566
-1.4002893122345472
-4.326694032125639
-1.1305839715543933
-0.8025469650337266
1.985870461462435
0.5368384983558523
2.296649484573466
-0.39751184655255944
-0.7058873183768163
0.031122359676729456
-1.508279571281369
-3.0054762059578852
-2.516149110940648
-0.33766099434996383
-1.2013872950415847
-2.2893739380151548
0.6071955895247941
3.8179546737169052
0.7822153745527141
0.7941316985147194
1.6705807496056277
-0.17677859385071076
-1.5512866466736268
-2.4089272358230955
-0.7974190761682035
-0.05492434670553907
-2.2671867679753146
-0.15560671657483607
1.015152729868737
-0.579827415125911
-0.5959289684254354
-0.3986211408498298
1.0873657000860146
0.025472683431407964
-0.38538977438419414
-0.09759155820724447
0.3186575490520916
0.019439001436380134
1.5210528185741001
-0.8061197824432647
-2.6900480687820743
-1.5521174839395435
1.0420720923016373
1.3369964017653198
-0.9967824273801446
0.044164004918137836
-1.1684519271026428
-0.03134766740112701
-0.8555150838650489
1.2056115821010824
-0.5538064910315323
-1.6889999146942818
-1.3972729000155653
-4.3151262573406575
-4.09879235738904
2.7016276331078863
-3.5187467405574564
-0.7172561881230208
0.9057837429795818
0.30901787875994147
-1.8725731470423765
-3.1406769853239687
-1.1665046355199777
1.9634588479152977
-1.4498056085070745
1.0837049747770264
0.9206940385607504
-0.4377473318246887
-1.5531876211165436
-1.1538693915470015
2.8912198292237776
-0.6562609214084296
2.491466592350955
-0.21442288828011402
-0.09869950576960917
0.9115711492518358
1.0101840410162526
-2.015421256301041
0.7175263575475924
-4.3343942463911285
-1.201843229345284
-1.4464809526578173
1.1333755211362573
2.4187808911325335
1.365938882601714
-0.5570312453224192
1.503932396665205
2.383505114824222
-2.6599316176368006
-1.2425055593714773
0.6352202987568437
-1.3127514360360462
-1.5924304248321342
0.3370833050918522
-0.8929190829383961
-1.6807414557994598
-2.8591255221025977
-1.2140315505106618
-4.858080168839895
-4.687863343232585
-5.676525683455449
-2.043283106648314
1.4716913191165808
3.9178841541148826
2.020741009374544
0.15241508637894943
-2.6316218966689275
-2.216819617982572
-0.051525501549083384
-1.6443766301312717
2.4920640973099975
-0.7505928279438836
2.4489749567293844
1.6489390589543746
1.6858792631682749
3.131667791662325
-1.4923543915991635
-0.5223081436130925
-1.5546746597447285
-0.2811117966174072
0.5176457634054453
0.36218784834368545
0.8145639361395789
-0.8851549826319124
0.13905630249471881
-0.7437254237443884
-8.859946486912687
-9.329498258779354
-7.85586591482859
-9.473340922934977
-8.561872751502552
-3.447736399947581
-4.427041174405718
-2.0231479855216326
-2.9574648652129705
-3.4995713019242687
-0.4377261262942441
0.9299001418541152
4.07325238861718
2.1754946715014105
-1.4386818035392575
1.597736108782349
0.08806757537934515
3.001945805382986
-2.353987462654673
-1.0458773124873242
-0.4070632846010434
0.38080278167424003
-0.8710589585365858
-0.4346656742051465
0.37458145718733626
2.9375371957864456
2.2672850606587645
4.8743682717210675
-0.7553297858490636
-1.7571248480701538
-7.638670413283458
-5.849248555542348
-14.191762922104537
-13.145089356861794
-8.54477654343433
-4.352674488763497
-0.9736269028285002
1.7391047804289101
3.37122110951611
3.6302999406996928
-0.10932385531361621
1.1024529413618178
2.124961322472005
0.9496911983249069
0.8595356551990289
0.0607364273072853
0.3663620989469681
-0.3475410500947927
2.0867312448416255
-0.11743358858935755
-1.6129622544598827
0.26761748645789646
0.9682802933758439
4.997909709124987
2.483341187194676
0.9690688301346252
-0.8022341379902017
3.9612910462751776
-2.090504430195974
-0.633871199490446
2.816482691932534
0.7471600632478912
-3.203163855128948
-3.9571747197057907
-0.16990096445057387
2.31791672333763
-1.5304564121115063
-0.8310268363705616
1.756247908060548
0.09600169249816294
1.0877830294913695
0.7780764594424164
-0.7170192217319371
1.4435138800668268
0.22643632634255997
-0.21777229698442305
-0.32177893872466684
-0.027874010487353856
-0.7071491914364392
-0.5068214792657303
2.4551983315778845
4.042546075745636
4.253688113176386
2.6889196576810233
-2.997962319654595
0.061988640157314416
2.618318685032643
0.7716551227471795
3.755403767586186
0.3986963891978391
4.027146863244537
0.23216733725274838
-1.4366461436231732
-1.1796165920158417
-0.40766886421314824
-0.3081398654047628
0.40401304066453825
-1.2147162041094257
-1.7141156935538546
1.9533121633838024
0.7063090236539381
0.37244816788286644
-1.1183970785259432
-1.7038261590288044
0.6132931148231521
-0.22471654176830977
-2.4767313102911643
1.1954864449599492
2.629359437766073
1.679480568244099
6.384386499462894
2.9831272540948537
3.130188773829267
1.0065093560236917
3.2051447042615435
-0.4853312408386317
1.0503831204051184
1.423571304398123
0.8764571446252477
2.7378808246651802
0.5918186479800535
-0.049283841336842465
-0.8385060476677108
1.4077599313116866
0.02297642637812645
1.4088713849289012
-0.13014638639147647
0.31401172120845583
0.962643889686818
1.4072347026186929
0.908020482856293
-0.4111287475635495
-0.602816485226796
-2.831121759742491
-0.3944372747936623
-0.8074113167608539
1.050004918573992
-1.2140625247984815
0.3414637355373114
-1.0361743601586604
-1.5425725706312916
5.485348625335
-0.7404814375007422
1.5014146388348615
1.7113212846006844
3.289578992079032
1.1965330360702953
0.3417717060464167
2.5827384088102034
-1.8187577696365664
2.4627395808930923
-3.906289995060896
0.20640227309251832
1.6557553091809007
-1.571753520011607
1.7636540074486367
1.7475153288201786
0.6114690594330418
1.0241085030495236
0.3711516597823851
-1.275807069227338
-0.55639755467788
-1.5417616845075777
0.24974907388879022
0.2690680966650597
3.531738163780045
7.408607225975528
0.9913015357468956
0.18100817829517313
-0.6479134750958734
2.779322397118502
-0.6674833376367882
0.3197921346972078
1.8747601381078145
-0.4331219850863352
0.6464171901684348
1.0766157855072438
1.4509949186902762
3.102048139144686
2.9307313034582423
-3.1012378898967463
-1.446911114019024
2.581328580038779
0.9047399424940192
1.4911350423424143
1.2631411531188004
-0.7438492727065195
0.9111913109215374
0.028383165477612177
1.241718926101679
-0.362584469750536
-0.477547580595643
1.9453419049924152
1.6886322617340743
3.628994188245621
1.41677192279704
4.523502649128775
-1.4623123901194135
-0.3028365340084245
2.809780701979051
2.200211143499684
1.8355917865929834
0.6805662386544542
0.5508530846259221
0.9667541174078442
-1.5773706399472525
1.867336786082888
-1.178547725202907
0.03400156263247288
-0.6504685665302262
1.8106916263400035
1.9264933786497673
0.23542131299303834
-0.5199561602871431
-0.4835752189841193
0.34372366390973375
1.6207135945919178
-0.23177338310294623
-0.6648377144776698
-0.3523055229971961
-0.6725273945179853
0.509132227494874
0.9508307582828012
0.19947931882231582
0.09584723001466132
0.977223289509842
1.2963696624000147
-1.4451298570065498
2.577491248071441
2.6704667279341407
3.344843593139068
2.489733544062113
-0.6919462812103869
-1.4804911315446427
-1.7135658179957616
-0.4414129459530039
3.037639716511834
0.8184372421068281
1.1802227372485155
1.2524907106692458
0.20120127913206204
-0.20083605806072322
0.589443835346216
1.052231717608134
0.05181656190420055
-0.8468985683496177
-1.3658969369008562
-0.9244236322652825
-0.4051129560398287
-1.7205489200863937
1.095913906076353
-0.6448315662158308
-0.7713581902284096
-0.4007993258855656
-0.8729948847236982
-0.6715448962167686
0.22196319982802076
-0.3253312561256415
-2.591265766168456
0.614817357815124
0.9833509310777654
-0.19084866972541967
-1.3305943538633285
-0.8858671239326193
-1.9298282624181267
-0.17121049398846633
1.1757797766051863
0.15466752796717864
-0.22396758404268205
0.3504484858655166
1.0958703664582847
-0.24352810433036098
0.9397913809241752
1.2536176201684486
0.14059352508366318
-0.12822272785126912
-1.2959326269960527
0.5262127258289183
-1.1656204919075608
0.12156840599044012
-0.11320514388089631
-1.4777181713124414
-1.3508671776664867
0.08494332275034341
0.5994222383922697
1.2290704549979174
0.2727782305336632
-0.15385100632532853
0.23551488816339872
0.5208814473237436
-1.4887168605609225
0.6742849513557948
-1.0124299217054193
0.10954671822862419
0.24912396375529133
0.9071956900230944
0.22050856488890497
-1.5411291249566557
0.6126583983655073
1.168165135361025
0.07968222028321036
-0.7380365244327346
0.23387720385879587
0.9356771161064463
2.232613725656656
0.8172350675673729
2.206524794265818
0.34264479855878893
0.04092778745624983
-0.7585942383926554
-1.0591084614732376
0.16240816305780276
0.4592336615210022
-0.8926808576982443
-0.32180127798233993
-2.3241909931036466
0.34756929141367193
1.622741910510518
0.8295302343687332
0.9229169447698735
-0.7816026948790681
0.17283728848826674
-1.5921448155922866
1.7136375392474372
1.0483862563857729
1.009202973372569
0.46124029529892424
0.6333594626956898
0.46094496971689164
0.572206751056329
0.24759552101571727
-1.5875101760630896
1.4479716018129465
-1.3012800563579416
0.6454944367124543
-1.3567370233879197
0.2809412334996197
0.28799724065033944
-0.5044754882331024
-0.05603703196570491
-0.3744719121834274
-0.11956094109944326
1.2979801950390721
0.8628680190334771
-0.9277218463327334
0.38393100487486675
0.12961556914728017
1.3495380021932728
-0.06267161654408208
0.05529305219529619
-1.7182562856762245
0.7083870054095935
-0.5056948074086421
-0.2831166795041856
-1.0381249440797518
-0.9083957124161531
-1.2276780191845262
0.42083826135869296
-1.8821821805375527
1.6304186007353638
0.02892734792137467
0.2876981620915447
-0.1623794745475207
-1.3601299906395554
0.05543591883967934
0.48781979136975695
-1.6612229001587249
1.1002160749813898
-0.25869736126107595
1.2847374630730604
2.141794457694745
0.04399702412070503
0.02865883180261782
1.8356271960666717
2.99007036506032
2.900138816305884
1.1256808333225352
-0.9520402802005754
-0.14635164651503382
1.1471403073602402
-0.0682351155059381
-0.33242185864432044
0.48874189245134453
0.750229891765549
0.9988389383239669
-1.0159305494235291
-1.0538212893932903
0.3049514828580051
-0.8524678428037664
0.118088556639918
0.251965921618781
1.1338945175763036
2.2102245999073573
2.3547771953484022
-1.157476777659029
0.44159305173942864
2.764945606039559
0.927378462138905
1.5747018607448884
0.7108538192056174
2.0134639429459313
1.0092793043085464
-1.3216790084557926
3.7796194517841784
2.181892072242852
1.5043148972861762
3.9390039773776095
2.11308052382546
0.7594697740852314
1.9960500209767678
-0.3488028060450329
-0.24980980585525625
-1.027299350273787
0.5431959248208292
1.6521243458075194
1.1129053519203542
0.3284112113525571
-0.0949146947761834
-0.28168869942652597
-1.2725947113987883
-0.045879748461818776
-1.4073847102078876
1.113373810648201
0.5737297712809528
-3.19007646572164
1.1787868367203962
-2.2032823146930385
-0.2996652179234452
0.9726706900561835
2.184160993918209
-0.31175250669043125
-1.195036569917037
-0.8497372884643853
-0.9472272180092292
3.0947698286902847
2.170324875950657
2.7222479264210384
2.2659671580108927
-0.6069180919624152
-0.6475389398926952
-1.759895042043757
0.8110993570774373
-0.4940554429311204
1.6379803276937426
-1.438150154384253
-1.3964913598256266
-0.7915802744168167
-0.5259231564577295
-1.4500399996242932
-0.5333538453393836
-1.8975118946701492
0.44534964748393974
2.3678510893860687
-3.1510018967547326
0.6088710237578938
2.670020626597165
0.5475213697726787
-0.13243212389457237
3.4200035763642265
1.5255697232579175
0.8808368438578454
1.8073535277674952
-1.783863824800103
0.739502533789531
3.0568386602739137
1.6184687128811885
1.0013713701046183
-1.464155699418701
0.29725177589777435
-0.6462126242071513
0.06107238396910319
-0.6429901122814973
-0.030313448508294406
-0.5316036501590581
-0.8099874036012389
-1.6646335301729063
-1.1938581667360442
0.9016784286791176
-1.4700088518353625
-2.400549185761495
-0.3385087437339211
2.4132125755332337
-0.6292279626092568
0.31437348800712855
-0.03734396993796853
0.5395302305268107
1.823532336067332
2.9667828385201673
-0.7603785290476609
0.15702749064633223
-2.4914167255558115
-2.2432852403050942
-0.48673631564219855
0.9573151760873828
-0.42442278456549165
1.9214890697233669
0.443798665573422
0.5277930571300595
0.47585440134492146
-0.9416261097411441
1.6140828219698495
1.7140978068659265
-1.8332549392344355
-2.674466997185186
3.028099590593612
0.41764211799494955
0.9738889337468871
0.7211298079926517
-1.0320419832374965
-0.7390168273772937
-1.5791287552758764
2.5078275162620733
3.18852429354303
0.4847278966987715
3.1190669921891643
-1.8351139947242627
-2.7130222280690246
-5.035757684629518
-5.211413548598273
-6.219434543903988
-4.049550719768234
-0.6772360411407442
0.5966551398731188
0.21799220977051625
0.4611046053904387
-0.4111916204508837
1.260584606321027
-0.7244327409044685
-0.37282245455990265
0.5182313704848266
-1.617849414856791
1.2472778075619269
-1.0265257831377244
-2.4692426452645106
2.658247732697655
-0.8367598521766881
-0.7636120503440482
-2.8566343489567423
-0.33835446173518824
-5.166830888678683
-4.189622788600919
-9.600628736920589
-9.843840309783976
-11.0556935741059
-9.793632844381955
-7.88240727320246
-6.835334283516851
-4.9549723442880556
-4.178109150054751
-2.5312111101883805
0.49375715077533755
0.4027603743197515
-1.4659930203946385
-0.7218604339600857
-0.7444098324697225
-1.441824408085198
1.6953084981974271
1.3743150054001914
-2.5872071697542545
0.5464712657464716
1.3992432565101354
-1.167892272881738
-0.9104123065056821
-0.8262668766291217
-0.1514125368412153
0.8493653239976051
-1.8755476200544257
-3.2410723939276678
-3.850177523564478
-3.893188530244697
-4.14043017802368
-5.586592651574037
-5.0503330708399
-1.3076430873400213
-1.495327146407524
-1.9884362621481497
-2.1034918171348007
-0.250179048675682
-0.2771009300781859
0.12561109219572283
0.30171836011481834
1.006629856277525
0.29839311614929087
-0.03803587825971896
-0.32493773897600403
1.0942514815389508
-1.61469682535539
0.4445955816343303
-2.587003277674092
3.1809738173912425
0.9542187134340877
-0.26165138694888074
-0.19065094519413914
-0.9395673914164808
-0.7596908471306085
0.2914586784651393
0.1386885588817529
0.8136078866369302
3.928920375864577
1.0115450032662867
-0.8523327175324156
2.4954106385016646
-0.016020790847388878
0.8536168552944505
-0.41771937204620263
-0.10768744126349296
-0.9672906227147534
-0.3852488065581683
0.47615416780620773
-0.18921695929117857
0.3250868743302295
3.5519965809696865
0.6344289498645004
2.8542173245532654
0.28169496395650534
-1.4870058367991261
0.9714782898513101
-3.301427458052522
2.4346932532979273
1.1190272044389913
1.2668451857028802
1.238492144437309
3.023929500550743
-0.5838689611887756
-1.1314435186669858
4.488176937770439
1.5221943963672295
0.6703271980530449
3.1376319898951843
4.127604947445087
-0.2256550720646127
-0.5281228285619015
3.6997577430248167
1.8528404998040224
0.30725556648104674
-0.42526942867451795
-0.20079566282442857
-0.29317772833057165
0.8969491481791
0.4639039933303673
0.7645046988749752
0.5304639742351203
-1.0960061078073777
-0.16640733392157975
1.9715746054416967
-0.78669787259117
-0.5681833601834961
-0.08418775743234228
-0.008907530087549475
-0.30316111384043865
0.30251136816321644
-0.38228337722891154
0.6230305495223238
-1.3641280809889094
0.5556948108451467
3.1421193756060766
-2.1957290599842163
0.5618215445216295
-3.6403495737478258
-0.8839289049013065
2.3117977440479547
2.894767874350943
1.6133535038792415
-0.5787364029164549
0.8533387534986903
-0.7458957175191009
-0.8291383780510715
0.179015564310383
1.0797272848887864
0.1988615597741873
3.4265697242911863
-0.4775504142482404
0.6214964171904049
-1.8282869558772035
0.7906611389589392
-0.5477861575557633
0.36920139433642357
-0.8564168635261351
-2.809176873175528
1.7941283980819052
0.3429276848605389
-0.09395659169196065
1.1106227937205775
-1.950028010821636
0.32431010306084634
0.030807650272854696
-0.9454213980248846
2.914117957109104
0.6912983129389554
0.01282372974763763
0.862816303025266
-0.670464221978131
0.26575253637586616
0.7914458432600762
1.413706245461484
0.4846709323751543
2.1013947925127683
0.34160543353161066
1.2805145092626555
0.64396832920546
0.32817980038765787
-0.2387332296371724
0.9018921012368093
0.40080354939441354
1.693235206141296
1.0255605488986095
0.7149236884451033
-1.77848066871075
-0.20678861835112955
3.295621094564568
-2.2437213158512956
1.1114332344462858
-1.699062403109755
0.14189195122325496
2.921125620025396
2.134153213920601
0.2758963936889001
-0.02584609712425701
-1.2705682747373785
0.31935192198382667
-0.545702660908311
0.7682261822193927
1.9303799388451375
1.485746579114921
0.2772744497663827
-2.661367164495194
0.2279387513466309
-0.18682746527330027
-0.33630642537855054
1.7658685040896895
-0.7671709761910288
-1.0442387334797016
-0.6868402136807833
0.23773417374428965
-1.3177826092382954
-0.22542651242191766
0.5576467067229327
-0.08715607246341549
-1.7662589841552034
2.428118392727929
0.7759307155840766
2.1376216735505356
-0.6990947363064169
-0.4640479108229758
1.903052263159406
0.08903803020366521
1.3476461698428293
0.8033802991088694
-0.22771988926067804
0.8273306258683294
0.31442577615880424
-1.0838040088322516
-0.8340039441755893
-3.095473344319539
-1.0167246106445373
2.0584868200905784
0.2781286800618347
-0.32703097899079425
-0.2651364323058618
-1.52103344513435
-0.11091425581864951
-0.9711013627104709
-2.044446252547502
-0.208605899210238
0.7319761831847591
0.7341072766192058
-0.5918213571432611
0.6839951418012751
0.11058743476194538
1.3329073945387793
0.4947413545701486
-0.9541609258360793
0.35151788011181284
-0.16811461776165626
1.3607258543886835
0.9357246320177345
-0.048382672110668754
0.23081124106923667
0.1817502074271937
-2.3217335669644297
0.48447012999646416
-0.7963065683696168
-0.23139170918759738
1.9094093017378269
-1.2759251785363959
0.5935941450745018
-2.065342014451886
0.5319672278573854
1.1998256799387013
2.4735219084244804
0.8721794182486778
-0.8461413658479837
-3.84671281804327
0.2568684420720174
-0.22128429722504336
-0.004385277942510018
0.9292012960082585
-0.3502014462550731
-1.5845402103379658
2.366176470706166
-1.5746720458494716
-1.6664198472576837
-0.3208253674097617
0.40381560227727803
0.08507824143041579
-0.6396234863489884
2.0764821349066334
-0.28856912475368035
0.3981237494702589
-2.1345628526355918
-0.905649418387405
0.6554794025282107
-2.1840977831227018
1.3753366882022233
-0.8370513817328923
1.3860124185580107
-1.6880242355112438
0.18288329319430427
0.32162189916769757
1.5155312278781152
1.019846373152592
1.4758452489663285
1.5112223410269654
0.046520157642833085
0.10675606803155197
-2.52630859053715
2.001296544698967
-1.1129330533740587
1.0864466079827793
-0.24403980669229997
0.0563239243868137
0.10683428725099285
2.1535335581518074
0.7052476883346884
2.984821481447647
0.6619151383780656
0.744977180002946
2.12962360721086
-1.346122265919304
-1.13061457768449
-0.06038015423136517
1.515509036651664
-1.5336754030817696
-1.4548045208168572
0.8722104651906372
1.2973183758466957
0.7062960259475936
-0.8355710435404732
-1.8997155006139954
-0.5141170611889159
-1.1023520934074604
0.6975617596257765
1.3797118002340683
-1.6638163594989868
0.9839120999546839
-0.843802897121722
-0.3770625654690312
2.1532692423726383
-0.19605994050925396
0.23181358757672185
0.1386234666583702
-0.49926405965370346
0.23285550420097637
-0.3432471855319215
-1.882465056041283
0.996691443911973
-0.6489473310968947
0.03544697088262107
-2.632983941355621
-2.2759631989243263
3.1433951989955187
-0.1843588904969749
-0.4231035273532712
0.39938992646149374
-2.7414138647064377
-0.4801962217970428
1.4434171512669036
0.13540773646919368
0.24081247038994777
0.7013650278784378
1.8085861625821318
1.3159032541310813
-0.12992764470964402
-0.32091216987793514
2.3007958340700827
0.7037387341890013
0.6183849060509619
-0.19185780043376274
0.35161008656521925
0.6051372102312597
-1.192461488738847
0.5134938102151578
-0.4459990932054809
-0.8623779753537012
1.6329076134477016
0.5336808010881396
-0.12008968652679614
-0.02910886635456322
0.1874075121853182
0.49064268761563096
-1.2590306449981814
1.311580874091004
1.6958906743950968
0.6404031656629234
1.8528717467579945
-2.649059996357197
0.3814125992128739
-0.6632479199837462
0.17427655864282
-0.29571686576426665
1.7240625695643315
1.7137948870071842
2.465570095926133
1.3208280773201815
-1.4780638950114542
1.178801066040943
-0.3421589411456445
1.1586899638655404
2.070820309203049
2.8607484360581625
0.8587879415335132
-0.16428325752710837
-0.12405561060880353
-1.3574488801789515
1.3485605619364929
-1.1013162712932898
1.5429325629341797
-1.192681204749586
-1.3408103827066877
1.0473698029293963
1.5533227493303854
0.4254441693705554
-1.2477140034294505
-1.6607275696386625
1.5962502425314022
-0.29475545503434597
-1.183104357969798
0.11575731830475616
-2.1103847208114295
-2.4460866787650426
-0.5608614985853527
0.4286068169496923
-0.4948935934763503
0.6023537231522211
1.7234087507082447
-0.25538606436022687
-0.6760028944783056
-1.029477650292517
-0.03892272321063747
-0.5388593808569304
-0.3162904659926123
-2.150482430430023
-0.7788064478085909
-0.24620397153826448
-0.5915273175918018
4.0910457882561895
-0.8407757970645924
-2.3374477285967346
-2.701118051010496
-0.1857115030730078
2.666732613131658
-0.5122062597927416
-2.5361909238951057
-2.773635222020514
0.1740402802342879
-0.22452462089082414
-2.338715359319573
-0.897630393933973
-1.400816003048152
0.6559356701938964
1.0538270625644781
-0.03903132946323474
0.46704535000807246
1.787257096854568
-0.8857222537613827
0.21986390758243288
0.016933123443799984
-0.20764750284652667
-0.4976849157136733
-0.9148699319211567
0.1867318339500299
0.3206268119700765
-2.8666438808954906
0.18372091802950874
-1.066852812772988
0.8957884623731638
1.0863501604970174
-0.8111880287325621
3.571060429455928
-1.521324628969745
1.8186336938973562
1.4297015336608285
1.4311781359344855
2.703521864280588
1.0513019048927017
-2.6668677584394653
-1.4871613709180938
2.5823398526401977
0.33693196978587503
-1.5482055815480156
-0.2143953203165894
0.8855942141852136
0.6922838624692247
-1.1213402616539863
-1.500254701047374
0.16384612793674488
-0.8362951233412771
0.02344559285751364
1.4251503270367405
1.4288054417471991
0.0038555466874071356
-0.37033077345155235
0.1018188534912308
0.6612097567559496
-2.409863093412202
0.8583634163883883
-1.2933685934519656
1.0815753837055166
1.7739400736883524
1.6166745368218487
0.1841865573795284
2.6380206357996654
2.5865588191129945
2.26522422437991
1.6232239270525248
-0.019948141870451217
-1.0797072957679361
0.6166494368918028
0.27167826399837863
-0.04596506823025145
-0.21050571072013116
-0.1578754074077219
-0.272515362795256
0.49812009794540163
-0.42294038205708917
-0.30027971080435906
-1.185627508471761
1.0120536264921138
-0.669273167259103
1.7165134243739821
1.2935815664262862
1.1802160506611492
-0.4176636891068875
0.42860797992185584
2.17259753186071
1.101792507524521
0.5792971471720313
0.8427417921466043
0.4107874473254938
1.3405844266823705
2.308479761541341
-0.26920442014801965
-1.6986472531019938
0.5874210089038948
-0.1424703532548801
0.8674907210203571
-1.4503858045260714
-0.5616173014246733
-1.9286539703816494
-1.5535705183357935
0.6625204994324411
-0.44051536339521646
1.4019864807044176
-0.8649008301529446
-1.5859657496421509
0.21702604075615614
-1.4082672320032055
-0.16895535131191267
1.7312379242364444
0.07930064459345039
1.799532494865977
1.307281952534362
0.9295546619714528
0.7459817111566249
1.4181468799445445
-1.5873480910951352
2.036329345564283
-0.18767176460571494
-0.04494559509905571
-0.36274936293145943
0.5550340480654549
-1.1355958358716605
-0.18912085244241483
1.2822417780024793
-0.3901681069874228
-0.5076063654222623
-0.1873523553916583
-1.1791994558327552
0.47646536651750615
-0.3998140212800498
0.3861352109502794
-1.031943784261964
-2.0547634443075333
2.4804503087603043
-0.5637224827451929
-1.3531531065599134
-0.3882973392853928
0.8176627666325016
-3.4573686904757057
-0.2103639078891887
-0.4175200567229045
1.8563679820455785
-0.9464952882959305
0.3517415755450183
-0.4158710016365594
1.4980559115053995
-1.0112651166000795
0.24784450132446148
-0.35430158270915574
0.8378022180971967
-0.24685313036787812
-1.0578777372236299
0.09400214933948459
2.803731129034417
2.4345952563694304
-0.5500459022069558
-0.6337230993124712
0.3607455613591084
0.8465416529094406
-0.27567006202438743
1.1070619247944147
-1.4662704426582094
-1.601167044761061
0.10058517590297572
-1.2957193637788937
-0.8154312770696741
-0.5867131965022844
-1.8908377718568685
-1.0841895623239541
-0.6383197262173569
1.4694610179060617
0.8592824053115607
-1.3326598672712107
0.38447676261579045
0.35122104347778926
-1.3297840077132883
2.670943827427834
0.3365888844650269
-0.7657003671413418
-3.0240971183990744
-1.1078281907664969
-0.3863445895307798
0.43099937255484144
-1.3346347537387306
-0.4592982246663519
-0.6819282119444336
0.31527664669368755
-1.216309270153327
-0.37882978168168346
0.5192526623270682
1.374207655711309
0.8104614744432562
0.9574694128452774
0.822257958638128
-0.5358806133053231
0.2847522946207008
-0.28284763771418764
-0.5158171895320159
-1.264866876544025
-2.25677469408951
-1.098020122142565
-2.1744887713520287
0.43841934388943793
0.7381749469956288
-1.4878433884667177
-0.08178618721224754
-0.07633320450909757
-1.430356147010176
0.5670006051514663
0.9055999655209978
-1.2601703468160947
0.5916425892554283
0.055041227913183235
-1.7707171416864727
-0.640018309234778
-0.620594169543757
-0.1797590104566341
-0.34327675657255763
1.6037999192990178
2.8118226551684113
4.205816050176173
3.3760787244261983
-0.24724385210643507
-0.585483971921663
0.29650313188292843
0.8099497467683733
1.5574467497665305
-0.7649688752637926
-0.017491684940911193
1.241723534478891
-0.5048712787533922
0.6787464185745891
-0.4893010417232247
-0.02309422188054807
-0.22400768282718198
-2.117275691551735
1.3838285502589467
0.3270267261532199
0.4463435801910947
-1.5490012186246354
-1.1682873926258492
-0.11852369582613552
1.6425386563435782
-0.14210793687143736
-0.10606997346383025
-0.12189696214478643
0.785271296758501
-1.6965738545972808
-0.022360933229117884
-0.1661110028128639
0.9713955945521512
-1.9841648563423244
1.5914663840669727
-0.9690478977267156
-1.0043782703265849
3.4479451865752133
-0.6025414450138432
0.02299399177282006
-0.6829138633000461
0.624836730440952
-1.9511662290096752
1.0915063839854284
0.40669927097117264
0.8437463527757243
0.18538398408191653
0.9973814949203035
0.46492804992087666
0.3785091352835825
0.09591473506304922
-1.5373028248646878
1.5068792844369445
0.9550762571286008
-0.859326403576656
2.2500128295756374
-1.4957825823114501
1.3050704232123171
1.817125126594204
-2.4881549839673265
2.200063396153973
3.2224022307747524
1.5316042468006839
1.9826990063250138
-0.017117037559568823
0.23092663323491286
-0.19180509954775218
0.9132693028667507
-0.40728086318257595
-1.399984367696821
-0.892297004786461
1.3618815607263284
0.05350234696431756
0.04583620541511334
0.510971526332514
1.6331991972191342
-0.7097026427578222
-0.21708871751747733
0.9979872633307653
0.43844402240961905
1.5336080391222875
-0.47551764132942254
-2.149463467876267
-0.8184109916048419
-0.4790277920103897
2.551583074413596
0.5725705210757099
3.67394207272016
1.426824328939313
1.8532465459639968
0.24744585000886482
-1.125998202411012
-0.20739907080302342
2.558441222404545
-3.501977488598366
0.5160730123276737
0.06301435254497167
2.645159402958069
-1.0353808202621277
0.9283244301384408
1.02502756961112
-0.8569396026899604
0.43422903200658847
2.333326971927763
1.667051674840382
0.25047029016765915
-1.8364172677477486
0.2495706849713352
1.7939579797124976
-0.5750405348610581
-3.4255645587247154
-1.8724583911258799
-3.462302779494374
-3.4579144226488165
0.2822334069555732
-2.1058574514646473
-0.7395288231483168
-2.268817357596629
-0.27258913503757176
1.933451600702804
0.1274499491835811
-0.2390997183533921
-0.8905890192463671
0.25557462136155046
-0.8831151930654363
1.2933605031528772
-0.23151370285608905
0.3603066215309014
-0.2758481703353396
0.06351328475582217
-1.104439602277553
1.4059233664401771
0.07314699103258945
0.6582384177226753
-0.700734084675405
-0.9275208848633432
-1.1703635553825251
-0.30375525724521624
-1.301468841214734
-3.733554480407828
-2.5527003359819824
-3.045827867519668
-1.8123499187494838
-3.141645810938301
-0.8057244054620004
-1.9456409637586092
-1.1178450185637077
-0.3399563767606169
-1.8442954200682424
4.427086558492023
2.5844514404511774
3.2648501018712444
1.752083591999257
0.17661949416464617
1.4128798168881336
1.064698730842637
0.6792874676015039
1.1456021134936916
-0.2155898869775453
0.5122708116905244
0.020619341134471152
1.05616187467806
2.3371450458669267
-1.7065833400259345
-0.10685316160867855
-1.4626739986874788
-0.8871640534917162
-3.3244110810027574
-2.9675639155495
-1.9473754983282616
-1.4194319707697476
-1.4231888062700209
-3.811390576712973
-1.901567624096375
-0.2578818366438781
-0.3660693861177727
0.581630266896487
0.8559196539955578
-1.4456114518472531
1.8197538193949452
1.0752725990138146
-0.6124225328711995
2.7078200291841874
3.347074990978508
1.3929785006248359
2.049452440283002
0.6451843646443816
-0.27360731431529683
-1.3939498630379674
0.008838419680686518
-0.04248005021614219
-2.410377393225798
-2.8637181580630187
-0.7459345906862821
-0.20688471202078854
-1.6550825467407553
-0.11755684838284108
-0.2094870757632381
-1.6423103134418862
1.223454890574521
-2.3670577975346316
1.1542772236030843
-3.075741331812599
-1.3209560204689488
-2.2324118208623585
0.2782624267215878
-1.8249916280369871
2.0631601722125112
-0.6358855997706739
2.363445258524934
1.846041626777965
1.1873324781152839
1.3914735134752445
1.1607342588145224
0.9228780900677138
0.785820914918637
1.6124398007033787
0.916005774172545
-0.5103152893538982
-0.240737901042888
0.21883435907563
-2.0008624255991894
-0.1129922225725366
-2.3363588528700237
-1.4787410089619393
-1.3521872225655558
-0.5266598680369848
-2.9619696225014223
1.9539188563514398
0.7483904209850715
0.4793721206663353
-2.6957507502448923
2.854897408543767
-3.425170267488949
1.522850354908289
1.8189219339304958
-2.245894785502858
-1.7036767613866914
-0.8933666926338879
-1.3574201099803214
1.6099739110150832
0.08435967616973078
-2.2662090639656642
-0.3922659430750299
-1.986655252091911
0.5520920004345452
0.18156001658784773
1.1495972522353355
0.8288721706334539
-3.024417952979983
1.83018000722783
0.24515907064549483
-1.1689266993472411
-0.10654116821297108
3.054235584670246
0.6670906043885549
0.7254796026485969
-0.5792811852491963
-2.0320986430103543
0.32353585970978027
-0.4924881288950947
-2.057497058365104
-1.0459217425269487
2.3891958085145992
-0.5539730624917376
-2.9399297748524797
-1.093631504954946
-1.824224250122746
-1.06348586630535
-1.1150205089384988
-0.23929598945710784
-0.8167790013537614
-0.11758836627050052
1.4010909885790166
0.4190631849913322
1.6029630079818153
4.203444445958984
-0.8913645451032628
2.782126262552855
0.8687085227241746
0.4878019057138383
-0.4185276957664571
-1.6198070636279118
0.9438415133561904
0.2116653615026115
2.0598111365124563
-0.005959595152692494
1.1861292657115667
-2.6094199963062037
1.8107465653232513
3.7027105511509655
-1.9956188099455427
-2.4764216924936386
-2.6511291241007418
-1.1041961340256068
-0.6600572689716685
0.6622264907127399
0.07296962722405863
-0.4517505233555306
-0.5903438728354409
-0.22488480480623713
0.6966308841889797
-0.34547006254333296
2.8189474246866433
4.266797418879271
-2.57924366488497
0.4492211822628506
-2.905932343864653
-0.27196931852522327
1.7954116601608772
3.2514769350276183
2.3697864165292573
-0.16907804148299888
-0.10785796291612565
-1.3589000944834813
-0.1715351749070259
0.978123925582507
-2.5118762324002284
-1.0706944013518291
-0.8325921479831851
-0.7610743477002437
-2.074224016090855
-0.49616186670944623
-0.6958572088348194
1.0135983893533527
0.44154881050513267
0.4028266641182718
0.4320237223502203
-0.1275867348714458
1.6940416098212343
-1.2299655944109207
1.241989570328552
2.5091979279303205
0.9278362035661469
-2.5235887032321944
-0.8555876929099806
-1.510192756454988
-2.6535458561017693
1.4364113770506897
-0.5485090602678667
-0.4445760377946084
-2.1760696607166063
1.9572169486001907
0.21937415164285046
-0.40317792577062245
2.459704178146236
-0.21792204295217354
3.4516601792888597
-0.21100942629787223
-2.0445947979591526
-1.0781539470237438
-0.4459851082713656
0.832484519963194
1.5320683011206615
0.2905814853375772
1.6518756053133252
0.8126455531213022
0.201201065453282
0.8951428443215279
1.088424752873281
-1.037014986285181
-0.8875064175874158
-0.7900863463523886
-4.015261337518331
-6.5058506540062035
-5.2183757537284965
-5.463230578674872
-2.827218936333014
-2.568118619323986
-2.056241442436941
-2.4934007543169443
0.3385218176607888
-1.0555466774025746
1.0639168265549677
1.6726245814734604
2.9690843741943445
-0.8649328370889875
-1.2400733265150903
-0.525832857098949
-1.1386129803511376
-0.7190844431837801
0.5698313998628008
0.2982329431751753
-1.2647822382526241
-0.9385803824419294
-0.5781920529714484
2.595867722379573
-1.259983885957276
-1.046864355270039
-0.28106530740007474
-1.751922738193513
0.28009476089815816
-1.6894938138457065
-4.418401268942065
-3.7215021806062243
-2.8154698212826696
-0.7840535265999783
-4.042236993331018
-0.5275972765931504
0.6643398291007081
1.8584277261873792
-1.9197240657289227
-0.8319928195359042
0.31779523558645695
0.031291070499584586
1.485332927360145
-4.533144302669002
-0.5612257774019237
-0.7146033990296735
0.6640843344076175
0.6066859201903497
0.7687493832226455
1.1698582427942192
-0.4425724147509832
2.3173478740369364
0.2115016603547546
-0.5198681795172637
1.9475879366409872
1.9664226485581286
2.530205622973313
0.9056055535847591
2.17935210811497
1.1201029682315917
0.7105351902998363
0.4802939482980753
-0.36909488262285206
0.26656457059288446
-1.3671482158479662
-1.51493823896579
-0.334019339886087
-0.9488403518680025
-1.7054597143247625
0.1417758804854755
1.7610320950794276
0.9975181039660004
0.21768681305335763
1.8833634164545618
-0.8423976211315127
0.47563143616108544
0.026335398210211265
0.44909131810236064
-0.2226554147438502
2.5196540531052207
0.24244347445777725
0.09135209062793517
0.3584372946221663
1.426090548388573
1.9715020131467935
1.211446574055648
1.9252038503596731
2.315310782060882
-0.7446799660458545
6.626175539250834
0.8644363063660899
-1.9151879257674804
0.9330157723352656
1.1075407421633128
0.9343465426756007
0.030910935527900914
0.47344986978071285
-1.4261919289794587
-1.2505158217922392
0.38161872428520777
-0.20211763748167635
0.1701219182958975
0.28703581183430266
-0.16501832455169033
-1.351673410176631
2.0525205130683934
0.003888470626867066
1.0631523875015136
2.687425613989286
-2.0504794673541222
0.4156364006085839
-4.425395819659524
0.8130198899871657
0.23928083744307843
-1.5112876943618356
0.4888404683745162
-0.1710499648229144
-0.48367812445082764
3.8449245566107897
1.9883973751185022
1.9020776254718315
-1.8932600018900831
2.1278643949161933
2.518105942481395
-0.4984501308864864
-2.955477281097799
-3.4386098698724292
0.4381700127353263
-1.255444852794159
-1.7124944895642071
-0.3947066352952358
-2.213381582879542
1.0614679796243471
2.2636147183687902
0.4849225694607919
0.11046105009755858
0.27240898604516
2.00765037626608
0.008982813935980664
2.314121973042197
0.4282398426500143
1.8626178175936663
1.6213891024210925
1.326500354112668
-0.34440838869948326
-0.4154921808332655
0.13737570138123006
-3.190190048588864
0.7275640279036509
1.3992491826558149
-2.775092969553417
2.6056109805466
1.2174870155715307
-1.1926202590805053
0.12114030876317994
2.4477793111002133
0.9073384885912474
-0.48952644908418363
-0.521604210059534
-0.6886747309302622
1.1220400022276107
0.25865026446445843
-0.5020292806269909
1.9763174486777033
2.9244087703409534
-0.09064992286017709
-1.3718919773381537
0.6290668202269394
-1.5131337939431344
-0.2185200926744153
-0.5298434628926666
-0.6023127953002331
0.9797503963698954
1.3790446092759094
-0.3819127814994008
1.196572659836224
0.4794551004426213
-1.5892284064562576
-2.401523370875895
2.5318077670323254
4.156695841615525
-0.5166065275759237
0.8180585651355867
-0.9874826095835197
-1.1740338378162822
-1.3836552687793864
-1.3401337581790833
0.16386147293175612
0.544229548408852
0.569881151218669
0.9751346776380488
1.3011622842500405
0.05051784872466138
1.4142700159372825
0.4293745989888005
1.5536710632844288
-0.6694552284172085
0.7408504567154568
2.3212494296650084
2.673688044594968
-1.9720271757944086
-1.4510782017945278
0.8393481251418105
1.2159960813408428
-1.0816140558937015
0.1136617675791202
-0.20661626422435708
-1.7371277934534803
3.4240163899338656
1.615302194047868
-2.079771261914989
0.46741500065220143
0.10610359680069481
-1.4164240792969547
-0.05418840771353544
-0.7943371815486739
-1.0491763028995833
0.8847957490634569
-0.545913953704627
-0.5564175190278349
2.3351331280288723
